'use strict';

let json = {"layers":[{"out_depth":3,"out_sx":32,"out_sy":32,"layer_type":"input"},{"sx":5,"sy":5,"stride":1,"in_depth":3,"out_depth":16,"out_sx":32,"out_sy":32,"layer_type":"conv","l1_decay_mul":0,"l2_decay_mul":1,"pad":2,"filters":[{"sx":5,"sy":5,"depth":3,"w":{"0":0.4933215019124324,"1":-0.2852750545652755,"2":-0.5347474394380751,"3":-0.14595681830890045,"4":-0.459469492330362,"5":-0.3714509166227281,"6":-0.26634164507900954,"7":-0.25297969069726245,"8":-0.23603555337296225,"9":0.19056326022230952,"10":-0.058818316257659015,"11":0.6212203504414395,"12":0.1251205596883954,"13":0.43268765992823816,"14":0.5672208990674015,"15":0.06705409458705958,"16":-0.07777934740999556,"17":0.05422849182474599,"18":-0.34305870217118595,"19":-0.1889145290118472,"20":0.2515230448616274,"21":-0.2740346588882778,"22":0.11084450557108456,"23":0.28815697992195877,"24":-0.37905184490358673,"25":0.23561849799851528,"26":0.39551498740604435,"27":-0.015202026414342176,"28":-0.05662300087889894,"29":0.32844475135433415,"30":-0.06006836534772241,"31":-0.5175628682242089,"32":0.08219072360636252,"33":0.1923321058794947,"34":-0.013932631147165546,"35":0.46131895572001713,"36":0.13806621798828617,"37":-0.0011916214564393346,"38":0.8322564846499791,"39":-0.4011688339421845,"40":0.1360895050320514,"41":0.4162751116125349,"42":-0.44789997470570175,"43":-0.23024329190935547,"44":0.060410763047857696,"45":0.19964808887646032,"46":-0.32006447808016775,"47":0.05483765954196506,"48":0.28216766103081603,"49":-0.2951881952360241,"50":0.22917371353741095,"51":0.4033842992232982,"52":0.05221782825955423,"53":0.8233775901491838,"54":0.33820136969215386,"55":0.12658200964008168,"56":0.3023661786458929,"57":-0.023692404549039914,"58":-0.1386302473447469,"59":-0.16059241319808065,"60":0.1886524044406042,"61":-0.2557717360256303,"62":0.16176274617608,"63":-0.181373900922901,"64":-0.4713209384268871,"65":-0.08714360019143062,"66":-0.12297376751661794,"67":-0.1634767806115786,"68":0.06034020930840683,"69":0.17025691741329546,"70":0.02861144555726961,"71":-0.06545139948933688,"72":0.06207299121808031,"73":-0.16751208620465177,"74":-0.07343117929292818}},{"sx":5,"sy":5,"depth":3,"w":{"0":0.02258097949994267,"1":0.04282814439460857,"2":-0.17138214264718504,"3":-0.20777647699997545,"4":0.247038217031165,"5":-0.018651011460989225,"6":-0.375163216067511,"7":-0.22779583490973168,"8":0.283935717562615,"9":0.06100425079763989,"10":0.006178649963199724,"11":0.03876419230050608,"12":0.5005972453041697,"13":0.00833352527292013,"14":-0.2575158238140626,"15":-0.4096844472043822,"16":0.29884598323663963,"17":-0.24429218797254937,"18":-0.5495336037578059,"19":0.184248078632316,"20":0.443519978093346,"21":-0.142373245251806,"22":0.18645318494180393,"23":0.655849101628341,"24":0.34555894472531334,"25":0.17392677387302657,"26":0.0696074564158351,"27":0.4585676439364403,"28":-0.36642593115974603,"29":-0.964661081343928,"30":-0.5433032073257752,"31":0.3349460085858187,"32":0.26866841436688926,"33":-0.4573962599875207,"34":0.4581411439300853,"35":0.7666724841211103,"36":0.14375055839217288,"37":0.10660058156710375,"38":0.5813293421232819,"39":0.25812354213562194,"40":-0.583482579015353,"41":-0.6431679326744728,"42":0.6066928927024862,"43":-0.2715528241118413,"44":-1.0549237001558076,"45":-0.5918655905105695,"46":0.41247097407621747,"47":0.6806966117332057,"48":-0.16376630145170207,"49":0.3069999417085413,"50":0.7728733560189802,"51":-0.14968323246177587,"52":-0.30281850328111054,"53":-0.08284127199080225,"54":0.13606213760419766,"55":-0.48271134769862795,"56":-0.6499345731806548,"57":0.8632644864517638,"58":-0.16151441756760956,"59":-0.6523450243107894,"60":-0.49577922985073763,"61":0.508104591079074,"62":0.6093733097535807,"63":-0.43082861604360456,"64":0.11158529298305231,"65":0.2799753014213217,"66":0.10262868860827698,"67":-0.5158048614347229,"68":-0.21361580465199284,"69":0.39936657144881266,"70":0.0434138594824337,"71":-0.26805345584590584,"72":0.41098515517275686,"73":-0.1317049250575725,"74":-0.3090181625495173}},{"sx":5,"sy":5,"depth":3,"w":{"0":-0.03861676139550461,"1":-0.040395528528614943,"2":0.2211373769207567,"3":0.2361050145665922,"4":-0.18510388651386558,"5":0.030724289546823918,"6":-0.07342093407816554,"7":-0.13802357396706574,"8":0.3325328657781559,"9":-0.31305275543550065,"10":-0.004656827067717248,"11":0.5244167480890726,"12":-0.5704928719765424,"13":0.27540562006723485,"14":0.6191218202145495,"15":0.7637635771646327,"16":-0.6572533712511589,"17":-0.532830124985328,"18":1.1192507900292448,"19":-0.8204945235843024,"20":-0.7571136058172119,"21":0.9538350971959032,"22":-0.732155573860088,"23":-0.7423081492624626,"24":0.4782529352003563,"25":-0.41215699922150634,"26":-0.33739930171526905,"27":0.13014477324900423,"28":-0.29726933097389074,"29":-0.188031565981904,"30":0.5191830090075077,"31":-0.42635520527192716,"32":-0.19999353274478485,"33":0.8284555435662548,"34":-0.7508265633920638,"35":-0.3366934028928833,"36":0.9140518772872325,"37":-0.7917556995528746,"38":-0.4597185655764997,"39":0.5861425345148148,"40":-0.39042638966641713,"41":-0.27202814342648274,"42":0.14894964862643925,"43":-0.3046104896864387,"44":0.0995535315331208,"45":-0.12790183761964155,"46":-0.25814883566934677,"47":0.060023828490295986,"48":0.048647320082270955,"49":-0.25930432367757805,"50":0.15087582035726177,"51":-0.001294005477582696,"52":-0.1650791660202251,"53":0.1895113616391315,"54":0.03666197704511636,"55":-0.21894794888744448,"56":0.256295775306483,"57":-0.31871256455115654,"58":0.02199188596075912,"59":0.20713794558845416,"60":-0.5934967425146283,"61":0.2726856267176596,"62":0.42554371075163183,"63":-0.6431594754187001,"64":0.43835544472941407,"65":0.6110718022981068,"66":-0.6988461013905384,"67":0.29979085365874397,"68":0.6470021031459002,"69":-0.6027309290490083,"70":0.22608883908372435,"71":0.4955701702412604,"72":-0.5780939043289635,"73":0.019186290557336227,"74":0.4506866041471534}},{"sx":5,"sy":5,"depth":3,"w":{"0":0.7054351938025203,"1":-0.2547009937398497,"2":0.051360439591920146,"3":-0.2459291926408009,"4":-0.7890549533026111,"5":-0.1958008973575513,"6":-0.27418067049077705,"7":0.033514683095294276,"8":-0.07479479112064168,"9":0.11557973462669228,"10":0.35629654287069606,"11":0.12221136676904656,"12":-0.1587811024622651,"13":0.3544830505093704,"14":0.09680212404918391,"15":-0.06166686959655611,"16":-1.078300508093575,"17":-1.0297550053332396,"18":0.28388428134678717,"19":-0.471100738460518,"20":-0.08046871130588291,"21":0.5494710934153809,"22":1.1532581126007613,"23":1.1591526110231516,"24":-0.3540253265706819,"25":0.09313164585034261,"26":-0.10965595129385186,"27":-0.2433592504084395,"28":0.23834357409526227,"29":-0.24373126905357514,"30":-0.20874949295940548,"31":-1.3541988875222977,"32":-0.9321715408025543,"33":0.6863917119997789,"34":0.15283792679605854,"35":0.4072532960298908,"36":0.4370630234367406,"37":0.7662743177999004,"38":0.7308603350886776,"39":-0.33724815801841035,"40":-0.16946473936142362,"41":-0.0970807671589987,"42":-0.14020916910824766,"43":0.23055982530903618,"44":-0.3596149053641237,"45":0.24471671551075996,"46":-0.39147350716499224,"47":-0.19655451993142894,"48":0.27382524512825984,"49":-0.14100122940852275,"50":0.1849124250151039,"51":-0.19988826502260099,"52":-0.013493672997572209,"53":0.16938781116681034,"54":-0.01341359550338231,"55":0.33543967959904386,"56":0.26163134145170563,"57":-0.3757618183686641,"58":0.2053490642200104,"59":-0.2881637962441372,"60":0.2501093093966882,"61":0.03248684341756736,"62":-0.05873824080944548,"63":-0.24621798919600568,"64":-0.07181520254152661,"65":0.16771583328974562,"66":-0.5579937402759058,"67":0.2588601636983721,"68":0.21083851374234733,"69":-0.08249743601369135,"70":0.5101682246550115,"71":0.005743869865731678,"72":-0.1778239617092738,"73":0.2138127391040964,"74":-0.080950275047719}},{"sx":5,"sy":5,"depth":3,"w":{"0":-0.43608616064421957,"1":0.3165319237956225,"2":-0.1483251486663378,"3":-0.3474908936205499,"4":0.9263074665535221,"5":-0.6219808185688909,"6":-0.7846420010887745,"7":0.6905507754333324,"8":-1.2613916847745836,"9":-0.39025996320869966,"10":0.6652809301016769,"11":-0.4653081100940287,"12":0.23864659905419558,"13":-0.11448866279702938,"14":0.49248381768479843,"15":-0.19023514739708267,"16":0.18612793818938017,"17":0.00636568473954989,"18":-0.05480812968253021,"19":1.262124891789473,"20":-0.2907873228999223,"21":-0.003647972793775438,"22":1.5727207003571417,"23":-0.3304386014333959,"24":-0.4519806796738106,"25":0.5658595315209026,"26":-0.7100529792786308,"27":-0.26935358499190176,"28":-0.07379587055112259,"29":0.04397276240634735,"30":-0.09609770131105151,"31":0.17212974105996062,"32":0.2912176143402935,"33":-0.9933360647406875,"34":0.092625964476457,"35":-1.3060926872227925,"36":0.1188933575373736,"37":1.127580969448326,"38":-0.3985221914803566,"39":-0.06086667071745501,"40":0.5672195060335659,"41":-0.43379471038237066,"42":-0.10621264442988634,"43":-0.008286218195372539,"44":-0.00026128410088620865,"45":0.22721648322956498,"46":-0.0683368561163941,"47":0.7455786757503575,"48":-0.17705900893075233,"49":-0.11987865132134334,"50":0.060431955852288395,"51":-0.14068918496406882,"52":0.3409998141490477,"53":0.0295479393322253,"54":-0.573254127555012,"55":0.0703676667150068,"56":-0.3177752393282544,"57":0.21148514098837792,"58":-0.13041317807493422,"59":0.1955244157979523,"60":0.2841378278122579,"61":-0.8440432403548861,"62":0.25071245590027136,"63":0.2999861490726995,"64":-0.19698745961603012,"65":0.33998740379620457,"66":-0.1824326637688961,"67":-0.3965025570290663,"68":0.27805629354277006,"69":0.06197682585196824,"70":-0.0640641170799741,"71":0.009147773945520844,"72":0.21637716999591422,"73":-0.24685821218606588,"74":0.4092883041003358}},{"sx":5,"sy":5,"depth":3,"w":{"0":-0.18134847757445488,"1":0.23304713172206987,"2":0.01175656806024064,"3":0.20409568200275183,"4":-0.3448727685106915,"5":0.1977135740670391,"6":0.11274630861320742,"7":-0.4547015651923349,"8":0.12073159986393105,"9":0.35334161194884633,"10":-0.02108171004166976,"11":0.04743040249959484,"12":-0.19449408408246727,"13":0.10151597487926768,"14":0.01170534801010291,"15":-0.17896501453742086,"16":0.13146492823526346,"17":-0.20458227029086057,"18":0.22217416173794916,"19":-0.20448951470615687,"20":0.43689865723317844,"21":-0.4238701051248918,"22":-0.7312479024653783,"23":-0.2405748546383369,"24":0.5674028468649696,"25":0.31669088428048475,"26":0.34399990349543436,"27":-0.4498041447245666,"28":-0.1728541833954096,"29":-0.40957103057099503,"30":-0.2226475190616617,"31":0.49660234536116576,"32":0.045696869383607966,"33":0.2364447256559986,"34":0.2606828231060893,"35":0.33985771888574295,"36":-0.7670209673494224,"37":-1.3923670969839226,"38":-0.6833239995702854,"39":1.2459875448247097,"40":1.1454806516592104,"41":1.1434747111620305,"42":-0.46957319899002886,"43":-0.030775413608686093,"44":-0.6231810346985693,"45":0.2221585009975491,"46":0.39712937044215774,"47":-0.12872385723314933,"48":0.03888426873143453,"49":0.041714873527679205,"50":0.46241466863670344,"51":-0.9030329428145174,"52":-1.4477589111569096,"53":-0.9033637207390629,"54":1.597704017482947,"55":1.6124155574181125,"56":1.0175717113789662,"57":-0.8570710365342834,"58":-0.36446954181486846,"59":-0.9101109495665306,"60":-0.29367978616096646,"61":0.34857716849563886,"62":0.21952936679697244,"63":0.12644790484748705,"64":-0.09495031374557995,"65":0.10366347109070573,"66":-0.5251310446018367,"67":-1.0111422514457449,"68":-0.5109111312992093,"69":0.9846745311000514,"70":0.9712335108521619,"71":0.7801702545043194,"72":-0.2708630117177015,"73":-0.23127979572808693,"74":-0.5456707009727552}},{"sx":5,"sy":5,"depth":3,"w":{"0":0.4109307611592425,"1":0.38635431174195073,"2":-0.16329013777371648,"3":0.39105034634705366,"4":0.30267155580634475,"5":0.13298627576193875,"6":0.6429614418646596,"7":0.6006565314619277,"8":0.3882810889501487,"9":0.2690850305053423,"10":-0.12959202032992156,"11":0.03337828803753489,"12":0.43617763133844456,"13":-0.023605333387712705,"14":-0.23062189589831864,"15":0.22326298842742182,"16":-0.15000730807120308,"17":-0.16097627374189666,"18":-0.15916361834757195,"19":-0.0628241562061831,"20":0.03795391627337854,"21":-0.21722484711888923,"22":0.015566337179667652,"23":0.31350586663343727,"24":-0.3202992309817862,"25":-0.03744432049105261,"26":0.33153760799516857,"27":0.19808148046232718,"28":0.369375023111094,"29":0.2765901601546692,"30":-0.20751488045377073,"31":-0.5115085069901091,"32":-0.47072688215522307,"33":-0.48552624736673544,"34":-0.2958791653279372,"35":-0.3900080531347695,"36":-0.2861839102736693,"37":0.10228796069487003,"38":0.24492217467829933,"39":-1.0134320945328,"40":-0.5504591007466397,"41":-0.030565044408870732,"42":-0.7286012149568527,"43":-0.29696906099663356,"44":0.027267529694332666,"45":0.26374867727531487,"46":0.018289999079691165,"47":-0.1732176003402173,"48":-0.1263694270205747,"49":0.013335583682973664,"50":0.015720597614823716,"51":-0.06366106271907067,"52":0.37859084566846574,"53":0.5175202897553021,"54":-0.28756182239955924,"55":0.20786892572493143,"56":0.3365373733398105,"57":-0.09149218060316464,"58":-0.12025114567435688,"59":0.012505325359826385,"60":0.0839835428230314,"61":0.0366182400525048,"62":-0.062408277736667656,"63":-0.044088919770020135,"64":-0.29632975182496485,"65":-0.2571768734558356,"66":0.06961066800311483,"67":0.12347801110283656,"68":0.24147562901999509,"69":-0.2023521402933319,"70":-0.05927387989804628,"71":0.11722182528870508,"72":-0.2973038742304769,"73":0.13344345906039176,"74":0.11062525389870419}},{"sx":5,"sy":5,"depth":3,"w":{"0":0.06814279899219206,"1":0.015061183760539547,"2":0.05136124289171214,"3":0.011316107177159198,"4":0.021759122003542287,"5":-0.07628133895454776,"6":0.73822696681681,"7":0.47824628397026514,"8":0.3672560634815147,"9":-0.3271393497462409,"10":-0.0029123871580118373,"11":-0.49909530551135217,"12":-0.6950079308746573,"13":0.4782585465318233,"14":0.097769618679892,"15":-0.23333181925871438,"16":-0.39290186612617456,"17":-0.27883088233607484,"18":-0.4948763778537471,"19":-0.955621932284259,"20":-0.27016435088773416,"21":0.07225929246628991,"22":-0.11168295001070302,"23":0.19903648971754742,"24":1.4678242433840394,"25":1.4741165944710701,"26":1.372235286488803,"27":-0.6118265164606859,"28":-0.46792033028257707,"29":-0.7675307899818268,"30":0.5519018475038987,"31":0.3529669688344443,"32":0.21887912321557287,"33":0.12429368722328783,"34":-0.020837607517903204,"35":0.18497751712033864,"36":-1.9511106820425133,"37":-2.1640118134120896,"38":-1.4488935296757495,"39":0.354853579480819,"40":0.08244264410313469,"41":0.3512424162833932,"42":0.8815364804719714,"43":0.7817530854321151,"44":0.6404989590891803,"45":-0.04336030858816207,"46":-0.04107843986294918,"47":-0.42639117563493,"48":1.0809188901945144,"49":1.011310287200037,"50":0.8184358193432183,"51":0.16783907776623538,"52":0.1458860550648362,"53":0.20998758859982505,"54":-1.2082956061745516,"55":-1.2932930652428531,"56":-0.8825050181795704,"57":0.22016828601224675,"58":-0.054834428970613316,"59":0.2923979013969011,"60":-0.23165423844657942,"61":0.18110342889820247,"62":0.11744034976853417,"63":-0.14169949902257536,"64":-0.28109272743910946,"65":-0.5773356399136291,"66":0.7383194706091326,"67":0.712962554554968,"68":0.46101216711354565,"69":-0.11995233672707473,"70":-0.4339661304287376,"71":-0.06701380316922693,"72":0.13653425221888052,"73":-0.29346385938682235,"74":-0.028875683624716948}},{"sx":5,"sy":5,"depth":3,"w":{"0":-0.14712401941362654,"1":-0.045037935686382286,"2":-0.4445119092569984,"3":-0.4398045537544359,"4":-0.21073061212374622,"5":-0.4859575444595913,"6":-0.07574006937114482,"7":-0.025333964132291855,"8":-0.10767228331984023,"9":0.13739187104194298,"10":0.23442710898306784,"11":-0.021466289458077457,"12":0.15790696720189412,"13":0.1379063133998508,"14":-0.044436498273999085,"15":-0.25934932576295083,"16":-0.007635657799670003,"17":-0.3173373481096956,"18":-0.12988216050357004,"19":-0.1827244935565791,"20":-0.5436565354301576,"21":-0.15086143453912063,"22":-0.18498019366204055,"23":-0.19671991236711292,"24":0.21136015609248093,"25":0.10450555064861584,"26":0.25234105487507147,"27":0.20516323134248113,"28":0.20880606530974624,"29":0.14732774540805982,"30":0.08941530156898957,"31":0.08296276490512862,"32":0.14799552173694927,"33":0.325264117470275,"34":0.26188726695357845,"35":0.1888775532641664,"36":-0.0025726412227431027,"37":-0.1592358507539518,"38":-0.15710874936250577,"39":-0.1532022834207347,"40":-0.49894381327617493,"41":0.0005380472844737118,"42":-0.008283331237303891,"43":-0.008582085015842641,"44":0.2530299233452444,"45":0.2952913122539792,"46":0.22262065238150533,"47":0.26805608112671026,"48":0.22264844821542398,"49":0.28470490066177717,"50":0.6044503406184268,"51":0.3716490616312127,"52":0.19453481173975937,"53":0.4694524500931835,"54":-0.31693326528406607,"55":-0.4892010071748432,"56":-0.17130348928868105,"57":-0.4690051641748565,"58":-0.5764253188998703,"59":-0.1676385027356122,"60":0.04944842292829616,"61":0.15829301989754083,"62":0.2580185868991946,"63":-0.06544865948167611,"64":-0.021961695515268394,"65":0.33017650127684106,"66":-0.38880909227147015,"67":-0.30641185638641344,"68":0.20341673582018616,"69":-0.4834040518472257,"70":-0.4740896645225414,"71":0.43177924180913146,"72":-0.30889754147910287,"73":-0.26256723925994363,"74":0.5978508910617364}},{"sx":5,"sy":5,"depth":3,"w":{"0":0.09226500028043633,"1":0.3510062753161793,"2":-0.08912387021640755,"3":0.31164508946199737,"4":0.40603611168210685,"5":0.08235556267989363,"6":0.11251916674547867,"7":0.0985675768550163,"8":-0.10638625846629748,"9":-0.29099881110992754,"10":-0.42945037902921035,"11":-0.08187474068646351,"12":-0.14823425177634908,"13":-0.15353162210594198,"14":0.0518295837455564,"15":0.050414956807062816,"16":0.01899450578435609,"17":-0.23940010161790418,"18":0.08886996525950501,"19":0.29565885878506215,"20":-0.03795458466768954,"21":0.3552317839834307,"22":0.24730674294323227,"23":0.24025486095130055,"24":0.004728032897688213,"25":-0.1554315362312322,"26":-0.11698574546230377,"27":-0.31274823394628753,"28":-0.4568368062227335,"29":0.1762753087773682,"30":0.20243079496331595,"31":0.0870476122745587,"32":-0.4789667520654127,"33":0.13122781943026285,"34":-0.02692243316261372,"35":-0.13889991528555604,"36":0.22618726875722772,"37":0.16683611565922854,"38":0.27198746768768955,"39":-0.0667173960330325,"40":-0.15312244236076697,"41":0.3336183171533488,"42":-0.4753162343480629,"43":-0.5061379898252832,"44":0.2622363244345247,"45":0.1600062794405309,"46":0.2019213807067131,"47":-0.45554811823600583,"48":0.22947831905350324,"49":0.11525861756630457,"50":-0.3365290871988165,"51":0.23857220372643073,"52":0.10441819783643838,"53":-0.08547713312826057,"54":0.014236570979487094,"55":0.11285751274840827,"56":0.5188012177064937,"57":-0.730764140057088,"58":-0.37384955472147874,"59":0.32295077304744235,"60":0.1529460986095399,"61":0.12013675623774343,"62":-0.47518638316080475,"63":0.11346051027912893,"64":0.05613640726332757,"65":-0.34772352729907136,"66":0.29127920879168095,"67":0.06668068073690613,"68":-0.09917795671791323,"69":-0.003112666091266914,"70":0.1809318620746468,"71":0.21958716164774433,"72":-0.5934896541468939,"73":-0.13793315376765666,"74":0.5507845608231059}},{"sx":5,"sy":5,"depth":3,"w":{"0":-0.06896712556979084,"1":0.07005966362181341,"2":-0.4057857117740656,"3":-0.22626888281193783,"4":0.0194859395626186,"5":-0.34770209651227896,"6":-0.024287314532576668,"7":0.11955612111426969,"8":-0.2772757168007912,"9":0.8121319332335305,"10":-0.06066046565376959,"11":-0.4465232092597421,"12":0.5684843677047324,"13":0.0013259681178062527,"14":-0.6064935567269116,"15":-0.20713695502161236,"16":0.09638597796298398,"17":0.33264071387673094,"18":-0.29993999264261123,"19":0.4619301303063696,"20":0.7188978749351088,"21":-0.1301038987868535,"22":-0.1350576465074816,"23":0.25168626232677976,"24":0.2758575344374949,"25":0.1353204761567569,"26":0.18988297473523777,"27":0.30370116499083866,"28":0.0610222086710439,"29":-0.4901179256101335,"30":-0.5809079572911389,"31":0.1239963171437769,"32":0.2301023524312257,"33":-0.6526072516468182,"34":0.10601849744686367,"35":0.34987196714475416,"36":-0.9591373947022098,"37":0.05119045583866322,"38":0.5163623133630533,"39":-0.17977333477416788,"40":0.1862438785689939,"41":0.08956626243215436,"42":0.38086190165180517,"43":0.046875644168307466,"44":-0.28719386418685316,"45":-0.48244546787064535,"46":0.11421775281199853,"47":-0.036873441125814505,"48":-0.5914255414085782,"49":0.059659336367586545,"50":0.7134740697478712,"51":-0.7199052654449889,"52":0.0033820546217826378,"53":0.2981239849786494,"54":-0.2753766219949943,"55":0.026521430383686796,"56":0.25451477178900445,"57":0.19398599361124744,"58":0.21993242770124152,"59":-0.24288381895979844,"60":0.16855110835619772,"61":-0.08645183816199407,"62":0.1921442188950473,"63":-0.4864038985488466,"64":-0.13655080323208346,"65":0.5061157464356025,"66":-0.40832198354430616,"67":-0.41129341729591506,"68":0.580585557833696,"69":-0.14493983346283013,"70":-0.1699352807263175,"71":0.13666831505288632,"72":0.31663845025306203,"73":0.056676574720695726,"74":-0.043641057564793063}},{"sx":5,"sy":5,"depth":3,"w":{"0":-0.27465074492377006,"1":0.028040518326909077,"2":0.36299398616931117,"3":0.0881383101536049,"4":-0.05205449668411821,"5":-0.3195431296447802,"6":0.5508704921233282,"7":0.1749841271496552,"8":-0.24621964407389627,"9":0.6876761949631407,"10":0.09210597929601205,"11":-0.023997102595291475,"12":-0.022949663596735326,"13":-0.0874614404898374,"14":0.1806600710463044,"15":-0.09310143896213752,"16":0.09845817426136835,"17":-0.2460637489220279,"18":0.3609997175897202,"19":-0.24355886000814272,"20":-0.605583753244714,"21":0.9101877018275725,"22":0.4612987452125764,"23":-0.03927547476996567,"24":0.07628887359344982,"25":-0.06532869550621623,"26":-0.08939489876113613,"27":-0.4339504385073763,"28":-0.1387271839014707,"29":-0.003201649758468929,"30":0.23447905083881543,"31":-0.4999548315491827,"32":-0.6508537162218063,"33":0.9190039248736792,"34":0.23139841840520725,"35":0.047756346401723465,"36":0.736349297583782,"37":0.2775099657390356,"38":0.3004257206719718,"39":-0.7562355588156783,"40":-0.833251000907824,"41":-0.29880651746955667,"42":-0.29964578245290163,"43":-0.326171319818324,"44":0.33106064633403354,"45":0.472604074153869,"46":-0.14569392164745185,"47":-0.08826272196619962,"48":0.5159642725754201,"49":0.42892194567835035,"50":0.5804263126058143,"51":-0.655352069831271,"52":-0.5239490183380818,"53":-0.3169373230595464,"54":-0.928531535799789,"55":-0.7568850992847606,"56":-0.21923722283388605,"57":-0.04351664716978398,"58":0.10878095757316128,"59":0.5602218353281718,"60":0.23362419463637668,"61":-0.06073570731270371,"62":-0.15129293831459661,"63":-0.26776268719430457,"64":-0.3395291598340237,"65":-0.06688214970460125,"66":-0.8865238499385203,"67":-0.19051914342615217,"68":-0.14053465151520098,"69":-0.007065290305795854,"70":0.3303861642395618,"71":0.6602337367336328,"72":-0.053134340807771976,"73":0.27537735306955774,"74":0.4447037919119834}},{"sx":5,"sy":5,"depth":3,"w":{"0":0.01247539526453138,"1":0.0011565852739619411,"2":-0.05869054617026632,"3":-0.14065082265556453,"4":-0.21517566900269378,"5":-0.3997417560270251,"6":-0.8755600811758835,"7":-0.9026846155079327,"8":-1.2773092734371974,"9":0.2622407428797756,"10":0.281769634609182,"11":-0.28762713836030657,"12":0.30596429959863747,"13":-0.05247359293811027,"14":-0.00997627034703729,"15":-0.04177145761809564,"16":0.12185441656009126,"17":0.008778547373488306,"18":-0.16247048898958222,"19":0.1821248116520977,"20":-0.18955897005326586,"21":0.9533837204585967,"22":1.4263926525536896,"23":1.0902654619991365,"24":0.9361849127637144,"25":1.2112327901787254,"26":1.1809950605646145,"27":-0.37064110660470734,"28":-0.5109176609795419,"29":0.01114186519896693,"30":-0.13074425304275186,"31":0.30151201478670675,"32":0.047354928117337734,"33":0.21945878288017476,"34":0.5157868077745997,"35":0.1635743726097498,"36":0.29184489035539457,"37":0.5310952240794731,"38":0.49426423366979705,"39":-1.2380201102917672,"40":-1.1004373204703526,"41":-0.811973672908326,"42":-0.2707035027166897,"43":-0.3966490706265386,"44":-0.04690371049032337,"45":0.036114177896684745,"46":-0.09971654984572506,"47":-0.003926393390066165,"48":-0.10625103740598488,"49":-0.059082287629081055,"50":0.04656366033890059,"51":-0.761199523544375,"52":-0.856158433953123,"53":-0.5065797528268101,"54":-0.18394838410336534,"55":-0.3427336886904033,"56":-0.10624752397082117,"57":0.541206465555708,"58":0.3620332438746813,"59":0.6404649400535481,"60":0.17058123951103937,"61":0.012612799922142216,"62":0.021192244535047186,"63":0.25691414913232913,"64":-0.04574408120474755,"65":-0.007990263429539735,"66":0.15486150184651756,"67":-0.21305173775758934,"68":0.058442916808922926,"69":0.43133689979079637,"70":0.273612929578464,"71":0.2869701418111318,"72":-0.06095512685269332,"73":-0.35714643019200754,"74":-0.28080549695631957}},{"sx":5,"sy":5,"depth":3,"w":{"0":0.1266659558186674,"1":0.11090894161444617,"2":-0.06370451776215305,"3":-0.2759912080298683,"4":0.0005477992337457056,"5":0.30286205790612336,"6":-0.13101638005822816,"7":-0.1730615729215902,"8":0.20832370151476803,"9":-0.04455813194345467,"10":0.07130213942559299,"11":0.22080966102381083,"12":0.09903091686018481,"13":-0.068805990171008,"14":0.2718252185031951,"15":-0.2271778862221923,"16":-0.015007910537731534,"17":0.28852411543927753,"18":-0.03460895979927508,"19":0.10966940430769519,"20":0.5563228483491658,"21":-0.5482386802996646,"22":0.07222485444697561,"23":0.2513287697299024,"24":-0.5096239352934191,"25":0.01101844473413595,"26":0.05047772558408098,"27":-0.1801780843208911,"28":-0.21081086664679824,"29":-0.17181123897761655,"30":-0.30878100091589644,"31":0.059727026862543164,"32":0.363676805855133,"33":-0.6864920779572102,"34":-0.3361185167781384,"35":-0.11885900242071613,"36":-0.8803741407318433,"37":-0.5359789205825174,"38":-0.4090078597352269,"39":-0.4353547821738543,"40":-0.17723244057058396,"41":0.19044291711219594,"42":0.04658074614631507,"43":0.09243925949686224,"44":-0.05738119558452053,"45":-0.29120508092615605,"46":-0.1848010444806884,"47":-0.053351765180108625,"48":-0.2016717747330784,"49":-0.12717470560988833,"50":-0.28270358500558534,"51":0.20268447948062984,"52":0.16519268666131115,"53":0.2583086370147266,"54":0.2956493459145283,"55":0.3936105044710835,"56":0.28871287214468566,"57":0.3292010038032109,"58":0.12528880431201184,"59":-0.24421253165026446,"60":0.3782310457178444,"61":-0.12932556971341772,"62":-0.09408682527323761,"63":0.9367871474117181,"64":0.1807050079308445,"65":-0.2575658387066583,"66":0.8687121366946174,"67":0.33107900727198863,"68":-0.4270016876113416,"69":0.7024016935032777,"70":0.10018095464613429,"71":-0.5155833944672494,"72":0.6776716526539452,"73":-0.02410894224557442,"74":-0.3848549802144592}},{"sx":5,"sy":5,"depth":3,"w":{"0":-0.5287247830909034,"1":-0.36536453202802704,"2":0.24494448397460467,"3":-0.3196650455067209,"4":-0.6517374911432584,"5":0.07007533114406726,"6":0.42011391724810465,"7":-0.02107316290562776,"8":0.5062853098063206,"9":0.2279334256754181,"10":-0.40823915716324916,"11":-0.18457954900273707,"12":0.17193955172306694,"13":-0.012312110931681275,"14":0.05748357889953374,"15":0.11274769820023543,"16":0.1940667547825486,"17":0.3970371141078402,"18":-0.41402741814615235,"19":-0.6851273900747132,"20":0.022089155385624528,"21":0.24664703354168896,"22":-0.061988622680598515,"23":-0.11496983864543678,"24":0.6453849130953069,"25":0.06413080572553409,"26":0.449205432074894,"27":0.5354682050665153,"28":0.11162102031285184,"29":0.17298851880069754,"30":0.19870995491316215,"31":-0.16639294487973705,"32":0.02527919281533028,"33":-0.24263262208976005,"34":-0.1601059786025688,"35":-0.3302838099217858,"36":-0.4143748601759756,"37":-0.49951485641579724,"38":-0.5670402769726466,"39":-0.21932612632041457,"40":-0.3509257000254946,"41":-0.30005802374642737,"42":-0.239827547266257,"43":-0.6450703326921098,"44":-0.09885624658578977,"45":0.082423706005483,"46":0.3826720137697153,"47":0.16274237772127667,"48":0.18688851136922296,"49":0.03915590083335214,"50":-0.0072375007623533645,"51":-0.03660286143139231,"52":-0.15541850550391023,"53":-0.32210145614451263,"54":-0.18526588589467663,"55":-0.2621603391725033,"56":-0.4481710115302401,"57":-0.27980023710618124,"58":-0.4494997456633097,"59":-0.20461443427594422,"60":0.1787756616506028,"61":0.1830981250549274,"62":-0.09593711416457704,"63":-0.031892353676459886,"64":0.02530832053321297,"65":-0.08951546783969297,"66":-0.2733620922813626,"67":-0.05626374711886415,"68":-0.355970402202731,"69":0.15920394245307692,"70":-0.02045073096769197,"71":0.19217836316520437,"72":0.2500267994909479,"73":0.023989642696415243,"74":-0.15188787937330397}},{"sx":5,"sy":5,"depth":3,"w":{"0":-0.28247072413445923,"1":-0.051363368150614326,"2":0.12665175689891234,"3":-0.4601955285963961,"4":-0.3220436668803896,"5":-0.24881360227325802,"6":-0.37959316242175994,"7":-0.17814722642983544,"8":-0.28772239956211965,"9":-0.01636311576218213,"10":0.06423945184443482,"11":-0.21949760411734665,"12":-0.13508806354987246,"13":-0.03356931835459457,"14":0.086073820428416,"15":0.45564978816377893,"16":0.25700449754194815,"17":0.43873603803388944,"18":0.43521118863024505,"19":0.35367853242828684,"20":0.4605544355822497,"21":-0.37174764886454015,"22":-0.1637804591093053,"23":-0.35478425044651796,"24":-0.325255907616955,"25":-0.33565658249511526,"26":-0.6702597363366756,"27":-0.22815468093861863,"28":0.030293449605925442,"29":-0.19645876391698813,"30":0.2922418132743197,"31":-0.18644124801764994,"32":-0.013918496646314739,"33":0.5160907461745828,"34":0.40734151163453297,"35":0.4269347984261805,"36":0.6001619960541682,"37":0.40096809608071304,"38":0.30172548036389624,"39":0.023992244867946478,"40":-0.1521995408930796,"41":-0.3509907816615482,"42":0.016590911453601847,"43":-0.12399253274301915,"44":-0.722959717256151,"45":0.07650659642713109,"46":-0.12327518001623848,"47":-0.04115313593319117,"48":-0.10249312617965949,"49":0.01175630323796677,"50":0.01145989456288345,"51":0.2726273338205992,"52":0.07152491945258485,"53":0.3836122340391955,"54":0.4664906950019589,"55":0.1561691243554828,"56":0.3493028151598082,"57":0.3942113823546031,"58":0.23381678908520612,"59":-0.09410286348141357,"60":-0.31202133484777034,"61":-0.22898150938034123,"62":-0.03226784781220066,"63":-0.3381225558050506,"64":-0.08916865116054747,"65":0.17616870777521468,"66":-0.22741615368080542,"67":-0.1709624719331066,"68":0.13904311082672374,"69":0.012604038347422852,"70":-0.12458724980766743,"71":0.09922097468966115,"72":0.12762384369709118,"73":0.005799547547069849,"74":0.0298515407924919}}],"biases":{"sx":1,"sy":1,"depth":16,"w":{"0":-0.32586150123083973,"1":-0.14610406560161013,"2":-0.5823904223352889,"3":-0.24373185392660202,"4":-0.23657316591088007,"5":-0.15970438369842674,"6":-0.3681287806231141,"7":-0.21629175822645821,"8":-0.41782111821891965,"9":-0.13202560912436478,"10":0.037841665393060483,"11":-0.2764553551306063,"12":-0.24252251468333375,"13":-0.1927465648705672,"14":-1.3700256978194942,"15":-0.29974249991377006}}},{"out_depth":16,"out_sx":32,"out_sy":32,"layer_type":"relu"},{"sx":2,"sy":2,"stride":2,"in_depth":16,"out_depth":16,"out_sx":16,"out_sy":16,"layer_type":"pool","pad":0},{"sx":5,"sy":5,"stride":1,"in_depth":16,"out_depth":20,"out_sx":16,"out_sy":16,"layer_type":"conv","l1_decay_mul":0,"l2_decay_mul":1,"pad":2,"filters":[{"sx":5,"sy":5,"depth":16,"w":{"0":0.19258342239659762,"1":0.10772205915318318,"2":0.06396712240523776,"3":0.02896443563590415,"4":0.18309041122154596,"5":0.06674802745989744,"6":0.18863188826635421,"7":-0.10957858131435315,"8":-0.14019460905114373,"9":0.06785314503579601,"10":0.1453647590413315,"11":0.21355459671683427,"12":0.17396647597428602,"13":0.05302247980224027,"14":-0.24564543305728656,"15":-0.09139681407183876,"16":0.003979509858821151,"17":0.3065477248326994,"18":0.1069074720334389,"19":0.26289123896973426,"20":0.027312637282565,"21":0.13020544103604634,"22":-0.10406824182948313,"23":-0.02204424224727341,"24":0.04692460688670101,"25":0.027538637943773325,"26":0.060881893936820475,"27":-0.11178777087143434,"28":-0.17077289768098966,"29":0.20324416428270337,"30":0.047449265136409076,"31":-0.1852891680425284,"32":-0.14620625431861364,"33":0.24066890030637064,"34":0.06415055283528964,"35":-0.007014553709752451,"36":0.09744779258486112,"37":0.07387130202010869,"38":-0.12704619616373172,"39":-0.19232255895875977,"40":0.213329731778721,"41":-0.01331312073533269,"42":0.015814771661287086,"43":0.3707387783104697,"44":0.018922150873205222,"45":-0.05802241232423773,"46":0.3214952073533928,"47":-0.27411701705855607,"48":0.036576486759191736,"49":0.07532909439077166,"50":0.09060727173207113,"51":0.020319864965395392,"52":0.13303515968645482,"53":0.14742918658858592,"54":-0.30512945458141827,"55":-0.21633883534751505,"56":-0.04046356954408294,"57":-0.015256393423207774,"58":0.18182588582872378,"59":0.33301039286282264,"60":-0.10851980492937138,"61":-0.01673135798740011,"62":0.13758737294295886,"63":-0.17658723690911274,"64":-0.03803940651335021,"65":-0.1769444330279059,"66":-0.08915779733832975,"67":0.05466866009635428,"68":0.09010478648683445,"69":0.02262057755096433,"70":-0.09304192742278361,"71":-0.12126144146357601,"72":-0.2684079823665919,"73":-0.09936436363936105,"74":0.06924766941994433,"75":-0.13702682754157375,"76":-0.14776236873627346,"77":-0.07251252856326626,"78":0.08166745607989573,"79":-0.1196192170767878,"80":-0.15056910830519507,"81":0.20613317493351532,"82":0.15430959194033964,"83":0.057321159437996844,"84":0.2713154288695441,"85":-0.11857715124263213,"86":0.09899539165301202,"87":-0.14137534350281333,"88":0.11552094570193762,"89":-0.07313534812243455,"90":-0.2090779895126354,"91":0.1430911623716956,"92":0.3003583070153002,"93":0.1679146400386406,"94":0.30710440441786924,"95":-0.2669557074947679,"96":-0.2523343281637535,"97":0.11211090812996934,"98":0.06877522657590138,"99":-0.09223365857834219,"100":-0.028381072140422167,"101":-0.20425191655899166,"102":-0.17422176883989524,"103":-0.5285466112112058,"104":0.1266993621310298,"105":-0.08182950571574776,"106":-0.19074432069079583,"107":0.5444263817137023,"108":0.08918962001498276,"109":-0.06766112543676728,"110":0.3151594946261122,"111":-0.48197390050443595,"112":-0.16712275562548864,"113":-0.18237456681551772,"114":-0.11512158171093113,"115":-0.1188460299567446,"116":-0.12506881268287454,"117":0.03554280606932344,"118":-0.18144856130525974,"119":-0.4059856785174683,"120":-0.08243528184817299,"121":0.0345611321555084,"122":-0.2118751059599946,"123":0.37532677774269635,"124":0.003745843310568474,"125":0.2571719960053409,"126":-0.03613996307170794,"127":-0.305712071947539,"128":0.02408424571419842,"129":-0.009636461265970512,"130":-0.12680762095771697,"131":0.49729261822772275,"132":-0.1794186258446275,"133":-0.13491886722976035,"134":-0.09963144618492516,"135":-0.11214449400583394,"136":-0.14842173163751438,"137":0.030229069810879514,"138":0.1721929804970829,"139":-0.24692749306283948,"140":-0.03753198642691824,"141":0.05199177729709885,"142":-0.19976054881889505,"143":-0.06627153971009157,"144":0.09508999503711303,"145":-0.06608977406672982,"146":-0.115862466170569,"147":-0.07688360893678405,"148":0.06814048767381287,"149":-0.03757444711702293,"150":0.20701880079919585,"151":-0.1731173998773053,"152":-0.14367514737459222,"153":-0.01681650418994492,"154":0.1594111027680966,"155":-0.1801872648412084,"156":-0.16145234532733813,"157":-0.3535479645197877,"158":-0.16274563675514048,"159":-0.04332949795380136,"160":-0.12182725442476973,"161":0.10957804691622099,"162":0.11459914251387034,"163":0.00015124820952620749,"164":0.29355586408928175,"165":-0.26665396446377904,"166":0.08765392288390587,"167":-0.2387814470520147,"168":0.25066450924216105,"169":0.10734962937080174,"170":-0.31841541605383056,"171":0.2415676437474687,"172":0.3563014774091355,"173":0.5905003175833841,"174":0.0625944900731621,"175":-0.24062036642464887,"176":-0.19023089276562188,"177":-0.03402756633515951,"178":-0.059960107480213215,"179":0.14794765911040056,"180":-0.2328014368518693,"181":-0.26341172671016005,"182":-0.14843862615974673,"183":-0.8008589376543647,"184":0.08561162151862951,"185":-0.026935104801976813,"186":-0.17315137340360812,"187":0.4389035808920307,"188":0.2906356351013745,"189":0.4135901628618138,"190":-0.13594657579168076,"191":-0.4699609948818081,"192":0.15759341000024807,"193":0.09087346661419078,"194":-0.04148402393600646,"195":0.6954986401355916,"196":-0.26111350762283336,"197":-0.1820873350255444,"198":-0.08072579167808407,"199":-0.49349605787988715,"200":-0.061210485540912345,"201":-0.04198826248298891,"202":0.17452560107695572,"203":-0.03172236781676194,"204":0.04297984710952156,"205":-0.09482960872607331,"206":-0.22513952805698997,"207":-0.37581032584683355,"208":0.033992185801909505,"209":0.1496488315773277,"210":0.03029147969009034,"211":-0.09078820080642651,"212":-0.040038068492669845,"213":0.0022475341286304156,"214":0.03121531982950731,"215":-0.25861187221747534,"216":-0.07925651992844726,"217":0.02216462218779261,"218":0.04699475438216165,"219":0.2015478754488576,"220":-0.19922763702549937,"221":-0.26254719468025517,"222":-0.24187202157837787,"223":-0.34324146692124025,"224":0.07200488818425486,"225":0.1194300481027543,"226":-0.1692952922041113,"227":-0.030141144716726558,"228":0.12764841091321344,"229":0.08194491896001618,"230":0.1820210747469667,"231":-0.012778210215938925,"232":-0.1444555114355808,"233":0.09854320466674354,"234":-0.06437667780215435,"235":0.2360849222455564,"236":-0.20114752163663774,"237":-0.2670795207039672,"238":-0.17707787888033497,"239":-0.2418398940769235,"240":-0.19620255204387346,"241":-0.014773114077580462,"242":-0.25399694632018877,"243":0.06379131367728168,"244":-0.2957160757466802,"245":0.043848962778692636,"246":-0.08973519340881603,"247":-0.0003833658342383995,"248":0.16365712698990126,"249":-0.17831759370363126,"250":-0.14277604851193498,"251":0.09781613011634403,"252":0.282450106099083,"253":-0.17612182814101487,"254":-0.264251041276503,"255":-0.02653780879116666,"256":0.10072861535812262,"257":-0.11844907081200366,"258":-0.04963051853058361,"259":0.3337419046000595,"260":-0.3101406450462691,"261":-0.19645409618363843,"262":0.06147743010396393,"263":-0.11558872515795858,"264":-0.1376266129495212,"265":-0.0927748850925095,"266":-0.08249544343876627,"267":-0.20893093562109782,"268":0.12342408087784437,"269":-0.13832721490258465,"270":-0.043915457387229365,"271":-0.16956432195641766,"272":0.1357204481983324,"273":0.22527044982324307,"274":0.054923002622460554,"275":-0.18689252710431864,"276":-0.09995285026968613,"277":-0.1519560553460577,"278":0.0000805379939948668,"279":-0.07515935340552984,"280":-0.3550831728745242,"281":-0.0556054102804928,"282":0.05762701082588247,"283":0.07417102142336016,"284":0.14825601271034164,"285":-0.033418466152679786,"286":0.025321797549655575,"287":-0.22940834206448044,"288":0.18822406391974414,"289":0.09930496460631943,"290":0.07049852970627421,"291":-0.2631749610728916,"292":0.01004816249802588,"293":0.05236847069081094,"294":0.021253321636799855,"295":-0.1208839400121551,"296":-0.01821255904929525,"297":-0.02928546454891333,"298":0.08144041006714291,"299":0.14982175940798714,"300":-0.39705698551100577,"301":0.09292783587162955,"302":-0.061245204856741974,"303":-0.2514012660412761,"304":0.2616884560088344,"305":-0.0025575371012365477,"306":0.046082266248925786,"307":0.011610273767424831,"308":-0.04920063886944433,"309":-0.054957258527598876,"310":-0.10779963061687856,"311":0.019961263157133157,"312":-0.11755484504933174,"313":-0.04110721807475248,"314":-0.009633069331732826,"315":0.08430249005411204,"316":-0.32307591893788534,"317":-0.20419008878791922,"318":-0.07264825336977851,"319":-0.1528702304157593,"320":-0.18818172550087547,"321":-0.06528811583221754,"322":-0.05243752757844589,"323":0.2815807640603385,"324":0.06930496042543208,"325":-0.09227855306343984,"326":-0.11925300602257817,"327":0.10172058812206324,"328":0.34050294292346295,"329":-0.05788446139507427,"330":0.12259646760343787,"331":-0.20644139052173663,"332":-0.014126221369388342,"333":-0.21189099498099304,"334":0.2960300881410626,"335":-0.04071393493940088,"336":0.13534803264886516,"337":-0.14281148384306158,"338":-0.010001549292578392,"339":-0.0013901213392709796,"340":0.08694105510814824,"341":-0.08068955462191546,"342":-0.009750963507435274,"343":0.443352490037753,"344":0.10650483015476538,"345":-0.10867081389213193,"346":0.04142570909174193,"347":-0.2978562749119978,"348":-0.15994025065956285,"349":0.007029148311757979,"350":0.1837534959586921,"351":0.1490342413963553,"352":0.408548175242523,"353":-0.05172274994976447,"354":0.13276097016815402,"355":-0.17977682838313555,"356":0.07772460641405568,"357":0.06122970985199571,"358":0.1479780107940265,"359":0.20969276786251875,"360":-0.004243714548373647,"361":-0.1214382334397634,"362":0.011884948191212356,"363":-0.027658405978522954,"364":0.023112686297110344,"365":-0.039310279927461465,"366":-0.12696313478670368,"367":0.16894021961565237,"368":0.10342003964663006,"369":-0.03025321153301969,"370":-0.06430967901642705,"371":-0.09476254444056063,"372":0.07174710373428686,"373":-0.007631831921835562,"374":0.07028510730175852,"375":0.07404247745278135,"376":-0.08053770306695765,"377":-0.06469918046472531,"378":0.006361500962860985,"379":-0.037298843369987664,"380":0.012495759520797435,"381":0.011997476901467413,"382":0.013605441445003487,"383":-0.16353687537295292,"384":-0.038482866171441615,"385":0.06071497857997713,"386":-0.006691169835133925,"387":-0.03510060084957936,"388":-0.049447494261931804,"389":0.04639714457737175,"390":-0.1331386795515108,"391":0.035272921911935914,"392":-0.01873583571201938,"393":-0.09595817754697572,"394":-0.17209747914584717,"395":0.18992628253175337,"396":0.06360265907218952,"397":-0.023402296204958,"398":0.05039339905940411,"399":-0.03887286847025705}},{"sx":5,"sy":5,"depth":16,"w":{"0":0.13340808658763573,"1":0.3708995076924801,"2":0.24021838463549372,"3":-0.02876492272068566,"4":0.036380345591575984,"5":0.14004294599565967,"6":-0.036989205783619715,"7":0.2383256207865205,"8":0.07391882662012869,"9":0.27213275529702036,"10":-0.20649803738019176,"11":-0.025274074085854376,"12":0.05322740551023086,"13":-0.15489984314331112,"14":0.0766771752261137,"15":-0.04897858471700061,"16":-0.015336531502166394,"17":-0.11640363200582665,"18":0.47679553267334895,"19":-0.4027579984053103,"20":-0.07680033880795295,"21":0.04876561511015414,"22":0.07714845103754296,"23":0.04824066327739748,"24":-0.09964719927577291,"25":0.1574254686690958,"26":-0.06974812174067067,"27":-0.15374269396096563,"28":0.07693318602345721,"29":-0.15675372914922572,"30":-0.04818447433714631,"31":0.0852228163721248,"32":0.011421423940299399,"33":0.05337672842531165,"34":0.4704783761510106,"35":-0.4835858324190123,"36":0.01872617579843809,"37":-0.09159114575639356,"38":-0.00821110363908764,"39":0.06456691161284724,"40":-0.21892166607624347,"41":-0.10519335772098386,"42":-0.026126189699985508,"43":-0.022121794372692898,"44":0.01968217289769032,"45":-0.024934596491787992,"46":-0.04013584951173749,"47":-0.0269204655940784,"48":-0.03640936005147524,"49":-0.18692592941444824,"50":0.2921419112911223,"51":-0.18107768878323577,"52":-0.049390390954950285,"53":-0.19320210412368122,"54":-0.019409346090808743,"55":-0.017847964080918214,"56":-0.1750061686349657,"57":-0.18763372909107826,"58":0.11831033749358678,"59":-0.03935870303797268,"60":-0.011853170712662538,"61":-0.021200867536107143,"62":0.11301225922247664,"63":-0.11520342646641414,"64":0.22213034937614357,"65":0.010984137698726665,"66":0.2826648674429135,"67":0.06637568240662599,"68":-0.13719142546676166,"69":0.0069706319422835625,"70":0.0485736511692848,"71":0.09501198943610288,"72":-0.3201594965929041,"73":-0.2981447811206132,"74":-0.043340673348610276,"75":0.26842644039630487,"76":-0.022086346926600636,"77":0.13160449533092342,"78":0.11511754317103692,"79":-0.05848215606702597,"80":-0.10033236831299451,"81":0.45220623554495115,"82":-0.1304089837706811,"83":-0.060078619028825754,"84":-0.1657649652756888,"85":0.1491859538982496,"86":-0.17496153222256822,"87":-0.07964797626715851,"88":0.16633165485852078,"89":0.370099557358981,"90":-0.19186419409343144,"91":-0.031015813899353224,"92":0.023773164946367865,"93":-0.06283407739268788,"94":0.12148022625059578,"95":-0.10313017014747891,"96":-0.191789360007701,"97":0.09355294709932654,"98":-0.04887675017299388,"99":-0.3761390794618675,"100":0.030530202837146126,"101":0.13571149152827439,"102":0.3483634649783722,"103":-0.09621943434846397,"104":-0.04410807861712224,"105":0.08020462448023814,"106":-0.12923883629625987,"107":-0.08401970092617651,"108":0.16469619519574658,"109":-0.020193120633425703,"110":0.06019132395208661,"111":-0.1432172226140699,"112":-0.23289510311693967,"113":-0.021771298777032093,"114":0.10216050605653669,"115":-0.32052199566232487,"116":0.13591711555927263,"117":0.1593898153943359,"118":0.4954550629169526,"119":0.014130375431884334,"120":0.07997984708831997,"121":-0.04974290269395354,"122":-0.10109660910397966,"123":0.10347698204025439,"124":0.11596206826617388,"125":-0.022064848340411117,"126":0.21027781421764172,"127":0.04278174746896686,"128":-0.397456733748569,"129":-0.1314777437537213,"130":0.08635757442591037,"131":-0.21261502068667573,"132":0.052945231428952126,"133":-0.24871679607394706,"134":0.298387711264711,"135":-0.024374533000502574,"136":-0.10286141630273532,"137":-0.2928283353620301,"138":-0.08364332459508049,"139":-0.008073890957454788,"140":0.23163070639681807,"141":-0.015304724776086716,"142":0.0923327660102961,"143":0.07618791919089724,"144":-0.16173224642980097,"145":-0.2181770501249204,"146":0.20938917470854504,"147":-0.10481211073243586,"148":-0.014446983587858118,"149":-0.1674767295652883,"150":0.2229608501007652,"151":-0.15729219955359242,"152":-0.18305556632833234,"153":-0.306493543889179,"154":0.10844690571661467,"155":-0.0017562628419918347,"156":0.05738276433214844,"157":0.20536673764778496,"158":-0.04602167155010148,"159":0.20184221540347322,"160":-0.04341075944916285,"161":0.059356914924981026,"162":-0.3807697336744007,"163":-0.0026195185478260835,"164":-0.07404168914525391,"165":-0.06450420875488373,"166":-0.04075290026140124,"167":-0.12693534819216085,"168":-0.026968776287791048,"169":0.3374859912609641,"170":0.14676156478499638,"171":-0.1211050181537229,"172":0.08661881540620556,"173":0.21847475115307766,"174":-0.1575952980343092,"175":0.2281798291553316,"176":-0.17378499754075472,"177":0.21524419127872768,"178":-0.1925665389996052,"179":-0.32772326673944785,"180":-0.059227224365209365,"181":-0.09683728860879025,"182":-0.27629567101659036,"183":-0.4222890371730664,"184":-0.019862586072014382,"185":-0.05136238105600749,"186":-0.03006187395184907,"187":-0.06758560209414265,"188":-0.007072047937484345,"189":0.018770126932786492,"190":-0.03721148829017276,"191":-0.19788966638852828,"192":-0.16897762033691555,"193":0.21590228891440125,"194":-0.056112431670477275,"195":-0.18135468488434597,"196":0.22996114064353484,"197":0.04259383745558541,"198":-0.08675633605982062,"199":-0.2056924754954483,"200":-0.004166853361093896,"201":-0.025135033695623917,"202":-0.07563088465059989,"203":0.03577372720377273,"204":-0.06452359876985257,"205":-0.033167393792131836,"206":0.16096783284130867,"207":-0.02307463933878622,"208":-0.25515132391070666,"209":-0.04032437787154676,"210":-0.04134006725371855,"211":0.1808547854988063,"212":0.10780021525333339,"213":-0.24259851751303146,"214":0.1027992041286341,"215":0.009023089901621891,"216":0.0233928612191369,"217":-0.17537224428527282,"218":-0.16067415549459796,"219":-0.03471467583436886,"220":-0.13215962531781583,"221":-0.04592175050750179,"222":0.2658669381279709,"223":0.041225798881468545,"224":-0.08761295462744642,"225":-0.3206843725330899,"226":-0.031130669269183824,"227":0.1321794846992876,"228":-0.11421467505636275,"229":-0.09083106222876375,"230":0.308161643061292,"231":0.0792827406648472,"232":-0.2217131473838159,"233":-0.15165235344804537,"234":0.19057922226720506,"235":0.0727826990638885,"236":-0.06573124973225798,"237":0.21644296465876275,"238":0.047912604734214805,"239":-0.10165857919364713,"240":0.08816533314575994,"241":-0.10406792789929892,"242":0.11547908265196553,"243":-0.02628741489485453,"244":-0.10202612041591567,"245":-0.11554213035633866,"246":0.09713377779161457,"247":0.16968648157348326,"248":-0.054711385119435324,"249":0.05828301792436098,"250":0.16913188987919353,"251":-0.06765436675350098,"252":0.32645618587707353,"253":0.23875692548490288,"254":-0.08573153108328897,"255":0.24334022493959698,"256":-0.08601711493160136,"257":0.01170379277260732,"258":0.041568727715680806,"259":-0.20584539404014823,"260":-0.13366655296357846,"261":-0.1457463607651865,"262":-0.2597786735213665,"263":-0.21329603027492205,"264":-0.05992687470581461,"265":-0.07157904026648,"266":-0.03306808213124459,"267":-0.11236657869464306,"268":0.026915199961051677,"269":0.09717716385683726,"270":-0.13084751959600974,"271":-0.022748135135047056,"272":-0.1768686025436666,"273":0.014124090507648627,"274":0.03521944699079555,"275":-0.31767710850032704,"276":-0.008635695284835354,"277":-0.2932299505594556,"278":-0.2760732530634427,"279":-0.2504503315419941,"280":0.044100983279265184,"281":-0.08455604657995078,"282":0.006890230108309682,"283":-0.15842399319845304,"284":-0.14046323822252788,"285":-0.05981700100903153,"286":-0.19851178519217047,"287":-0.10715705306066135,"288":-0.18660733013618147,"289":-0.07992941545559691,"290":-0.05103989539024225,"291":-0.19763953856452376,"292":0.09256045854774596,"293":-0.05852714273871264,"294":0.01716343902619719,"295":-0.09787435926195391,"296":-0.0054404220888050235,"297":-0.14939381601013152,"298":0.03302276650311453,"299":-0.155411992234475,"300":-0.25223102274873216,"301":-0.027604102019522042,"302":-0.11975425871930342,"303":-0.06280832224274539,"304":-0.007963090593386263,"305":-0.33036738827041573,"306":-0.16096805502381817,"307":-0.0703787488844925,"308":-0.09212185268360484,"309":-0.09362411852941473,"310":0.021109617496833065,"311":0.110415217340067,"312":-0.061895785653683595,"313":-0.28566891569275454,"314":0.2084641437200213,"315":-0.1830002098349552,"316":-0.13087945904315956,"317":-0.11635805492306915,"318":-0.15145612667312844,"319":-0.0006572063110467701,"320":0.0070892808774398386,"321":-0.36412088833001505,"322":0.06552498558418492,"323":0.02054702842588755,"324":-0.09760848812266404,"325":-0.2891687342200789,"326":0.20960629846673007,"327":0.1652343133573625,"328":-0.045667167105955385,"329":-0.0921746643449277,"330":0.04463201733836138,"331":-0.017640298860053645,"332":0.1485591427201073,"333":0.1505852404785759,"334":-0.028342580262321036,"335":0.04037231735767466,"336":0.06798326760583472,"337":-0.33209935666502927,"338":0.05242623473377505,"339":-0.1824677182803361,"340":-0.08124392007793625,"341":-0.19861868528415824,"342":0.05096100954377616,"343":-0.00016774160809280273,"344":0.03595927402520348,"345":-0.07415173934213914,"346":0.06639772241912904,"347":-0.1260272013567889,"348":-0.10536561994055953,"349":-0.06310389702759299,"350":-0.17065505145737744,"351":-0.05898385425900336,"352":0.08376936698747008,"353":-0.31784471867702496,"354":-0.018633939749549782,"355":-0.13144736657617806,"356":0.01777931995467219,"357":-0.12270026545577943,"358":-0.02173523799819129,"359":-0.00692011154596902,"360":0.07424400680701103,"361":-0.07214159507087202,"362":0.07726039049372092,"363":-0.15070881461748145,"364":-0.18626247853890515,"365":0.04478036722683314,"366":-0.18956312897825647,"367":0.02824977523144119,"368":-0.04776640465510346,"369":-0.13317304105653502,"370":-0.03839600385939551,"371":-0.03596913792587753,"372":0.1036554703060397,"373":-0.08803072101479732,"374":-0.1875524803673931,"375":-0.13299504710612856,"376":0.21950328910360595,"377":-0.22957119699160058,"378":0.16519831903684895,"379":-0.27776238379271323,"380":-0.18796515726711013,"381":0.0676233723821646,"382":-0.15472473286826838,"383":-0.01339850408335011,"384":0.2029603527777738,"385":0.0377160048374599,"386":-0.04910596569687018,"387":-0.08938346818837699,"388":0.019952989497027975,"389":-0.0787406035742483,"390":-0.05474565866024248,"391":-0.15628554303151718,"392":0.22528131421492573,"393":-0.24347678080814034,"394":0.27868535126346655,"395":-0.3452435868786948,"396":-0.10247615869781128,"397":0.08778493975114031,"398":-0.1189969441985347,"399":-0.14246134700248458}},{"sx":5,"sy":5,"depth":16,"w":{"0":0.18014964662565197,"1":-0.1348301111198028,"2":0.2003190389261248,"3":-0.049165495350073724,"4":0.10844210772717405,"5":-0.025915811551913037,"6":-0.1175817043335189,"7":-0.07368965619814534,"8":-0.12511339138237038,"9":-0.29651106712771375,"10":-0.10068727529235579,"11":0.1655902107255301,"12":-0.06757166188488554,"13":0.11682246530465687,"14":0.019884415548374088,"15":-0.04262429513175305,"16":-0.1065609402698276,"17":-0.3179060262926983,"18":0.14884690438996284,"19":-0.13979703657862433,"20":0.16238161079050822,"21":-0.1350036712907862,"22":-0.06206170701472013,"23":-0.20643261033756544,"24":-0.3309411299411771,"25":-0.21355218605426665,"26":-0.0021230594194265665,"27":-0.21646945085847263,"28":0.090263600922039,"29":0.14824729835272202,"30":-0.24076457836624407,"31":0.060439873665634136,"32":-0.21636775470556224,"33":-0.09301110170639319,"34":0.13498152761201537,"35":-0.20605103382687204,"36":0.19634064923094216,"37":-0.2020572180463896,"38":-0.10489542502194946,"39":0.0310108151156559,"40":-0.16451844806541394,"41":0.025971530994917977,"42":-0.04298612994216596,"43":-0.33187310439016676,"44":0.15384117053382176,"45":-0.17887932698491643,"46":-0.1343413834823332,"47":0.01549282687543507,"48":0.07227197330448158,"49":0.2456202336517231,"50":0.00981480691709329,"51":-0.03734661256554076,"52":0.001945582832990838,"53":0.09676051929308721,"54":-0.08413900282510169,"55":0.19114234753411877,"56":-0.23324072951567257,"57":0.046803140070544244,"58":-0.04275441098644157,"59":0.12250036172705059,"60":0.002963444468374021,"61":-0.03593302236686292,"62":0.17382795009801522,"63":0.013501123281724925,"64":0.0036583419334379765,"65":0.21002661700976585,"66":0.0024908880048805032,"67":0.023909683757724422,"68":0.05437545553525577,"69":0.2068879058681146,"70":0.24917016153819407,"71":-0.22848228270625137,"72":-0.1914011478011586,"73":-0.09002000006998474,"74":0.06138210428334499,"75":0.013554803841666374,"76":-0.004993307173427211,"77":-0.10716098268455865,"78":0.3354650109575295,"79":0.0023252133949684052,"80":0.26723841299131457,"81":0.26866511773327406,"82":0.13381216339065596,"83":-0.010930601674679569,"84":-0.20114009061852414,"85":-0.11829108143736183,"86":-0.0821328591833736,"87":0.01886261148720556,"88":0.12008845755270578,"89":-0.02218759206568708,"90":-0.25647177971772944,"91":0.24412818238470474,"92":0.008191887542248675,"93":0.12873717317090758,"94":0.08522766286233537,"95":0.1435915797747371,"96":-0.13980993642371897,"97":-0.023664636648082132,"98":-0.04783461211824095,"99":-0.0782324942849103,"100":-0.058501498451638934,"101":0.0205346911136893,"102":0.20050132530886447,"103":0.25046566725722497,"104":-0.24512629995047305,"105":-0.4004716253617024,"106":-0.026615292902033925,"107":0.44482669073632963,"108":0.11121561592089665,"109":0.4272380175271179,"110":0.17364569649811154,"111":-0.10510434107182251,"112":-0.4239250289529442,"113":-0.009613241700446506,"114":0.05748722685945298,"115":-0.1613485270816564,"116":0.2771144294607947,"117":-0.09270841834340823,"118":-0.07812993821290347,"119":0.13878669859230275,"120":-0.09120023326990312,"121":-0.003949622130691876,"122":-0.19587676092777725,"123":-0.08042133218396573,"124":0.1634488633303352,"125":-0.005279134611618233,"126":-0.27572194139481215,"127":0.04144329128981296,"128":-0.17453694035275003,"129":-0.11873259829810806,"130":0.1397606203603016,"131":-0.1160275945935269,"132":0.22072934584375228,"133":-0.16637620127972857,"134":-0.2989686204441333,"135":0.04571424659543948,"136":-0.17624341534295307,"137":0.3469063083189277,"138":-0.25587573633876215,"139":-0.150615205352025,"140":-0.0798963397013987,"141":-0.0870313009270885,"142":-0.34585772821597305,"143":0.0263595589937963,"144":-0.14224285258895414,"145":0.11230135719494785,"146":0.18855790369218678,"147":0.1140708804094187,"148":0.16639870579823052,"149":-0.045516806834077016,"150":-0.20357235575485694,"151":-0.3021573112199157,"152":0.06032462108097422,"153":-0.013061458506346149,"154":-0.14092166974905335,"155":-0.2659572108309326,"156":0.10600965106227785,"157":0.04268577770293187,"158":0.27458673654588306,"159":-0.2604831012696587,"160":0.0620778985592097,"161":0.13946250300288957,"162":-0.06713056276567385,"163":0.0010479123422062447,"164":-0.36496441749390846,"165":-0.0724585328195009,"166":0.044956115936159745,"167":0.10828361602628812,"168":0.008901582676971217,"169":0.24248179853341092,"170":-0.13736322957516578,"171":0.2557382495784407,"172":-0.2286113437967358,"173":-0.0034621635230469732,"174":0.1019197935850811,"175":-0.016778918499491768,"176":-0.31673266481276924,"177":-0.164660985163534,"178":-0.3015319511688206,"179":-0.038793535183659335,"180":-0.6751332847393441,"181":-0.018157932498854078,"182":0.4275524752259936,"183":0.0422194395367299,"184":0.010674838744232916,"185":0.012894943882958292,"186":0.12316329294523075,"187":0.6010044957081716,"188":0.14536701370871175,"189":0.11441757376041446,"190":0.39599080145683124,"191":0.10963909747775546,"192":-0.12944642854655247,"193":0.013442456324274373,"194":-0.38766160283818574,"195":-0.009537899027909103,"196":0.18208713681162686,"197":0.16070167277318445,"198":-0.03039042439475284,"199":0.6379228482816885,"200":-0.08023745774238714,"201":-0.05172387035950193,"202":0.0432068480614242,"203":0.041779529801774136,"204":-0.034324118851071096,"205":-0.09195971188282104,"206":0.42830632391913137,"207":0.17453105167614313,"208":-0.2574270972281559,"209":-0.17746695611450644,"210":0.11466962117564276,"211":0.35021597475693367,"212":0.2638090833676641,"213":-0.046258054769334124,"214":-0.15107350749877765,"215":0.003021259415227934,"216":-0.07475847435154698,"217":0.01971649039122334,"218":-0.11171289918485999,"219":-0.06963925557831223,"220":-0.31594961408975236,"221":-0.41699567112665686,"222":-0.19801930294458392,"223":-0.23236570502938306,"224":-0.1392633908364056,"225":-0.14564241424653024,"226":0.11860724269310846,"227":0.06720242876943593,"228":0.4624444060138449,"229":-0.04538204759035662,"230":-0.27069576028989145,"231":-0.1651591156994033,"232":-0.040645123579630814,"233":0.09211512884287719,"234":-0.21368714792030685,"235":-0.34767378781130465,"236":0.08405867777161113,"237":0.0198813577893789,"238":-0.3468807628887826,"239":-0.0500419948511128,"240":-0.014536033181804294,"241":0.12830154490438272,"242":0.18894943431698763,"243":-0.10237521812350282,"244":-0.25280433975449923,"245":0.1519597453751753,"246":-0.17939673053610317,"247":0.28853479589273084,"248":0.17809998702392016,"249":-0.18243636701334567,"250":0.08216944470395773,"251":0.10639149428682344,"252":0.20765581930341184,"253":-0.1793201574320369,"254":-0.23962530110038818,"255":-0.11710357988677945,"256":-0.5154269483419771,"257":-0.15737279884169375,"258":-0.2703729691161088,"259":-0.07772556729840256,"260":-0.5235405824489803,"261":0.21408003716001087,"262":-0.3846970242089943,"263":0.29057750417049394,"264":-0.12668962402479642,"265":0.21484346367648255,"266":-0.09234205845407666,"267":0.07379695678343667,"268":-0.1984608073692396,"269":-0.15281006686928647,"270":-0.36590180763223984,"271":-0.007780268848508297,"272":-0.19843429728510953,"273":0.027249485309656603,"274":-0.6349552030752161,"275":-0.24680185740715171,"276":-0.45869762730054026,"277":0.003867697829871382,"278":-0.31803139321578433,"279":0.016949234593575696,"280":0.33837619844992683,"281":0.123468488016256,"282":0.10386858212280177,"283":-0.17863007543556075,"284":-0.28470862704702504,"285":-0.19415208086548366,"286":0.34709074766699405,"287":0.03320774683542627,"288":-0.13895775729441243,"289":-0.13745896767594049,"290":-0.1825799972752248,"291":0.03257536534607982,"292":-0.21776270492734842,"293":0.0717536512261778,"294":-0.1408840461586685,"295":-0.10092158554207657,"296":-0.15372286237189273,"297":-0.1625062041762656,"298":0.04515779549792758,"299":0.17138232563245934,"300":-0.12342184636074145,"301":-0.02908664531859306,"302":0.4348734940673488,"303":-0.12731507470811507,"304":-0.1317448168663336,"305":-0.14004136768229083,"306":0.36087668028947806,"307":-0.0015755462685546045,"308":0.14089951210008983,"309":0.06259171847078385,"310":-0.19994507359364075,"311":-0.1718450669929677,"312":0.06523049042300227,"313":-0.025591455578364647,"314":-0.13008919722682188,"315":0.01126329055016115,"316":0.3167787811475205,"317":0.07080776999717216,"318":-0.3403059973792011,"319":0.01873316361047076,"320":-0.054054832516017906,"321":0.02002586364837153,"322":-0.0503511465450503,"323":0.20159911184258042,"324":0.2360726143905265,"325":-0.012742498107904598,"326":0.0467156867220415,"327":0.21568190084269395,"328":-0.03164727689500632,"329":-0.14673665947628134,"330":0.30253621983787643,"331":-0.12017043030306396,"332":0.08544534503482366,"333":0.24493328055663016,"334":0.04974632031059828,"335":0.11290699980077219,"336":-0.24906146432531528,"337":0.3966791356055011,"338":-0.14713458488913467,"339":-0.011844436623563256,"340":-0.1489449017537242,"341":0.0036847490586445165,"342":-0.43765906948569233,"343":0.169228683016057,"344":0.04331521776750222,"345":-0.13887953971332093,"346":-0.1068239303505446,"347":-0.011641947482031663,"348":-0.22522790628225325,"349":-0.058642328027870935,"350":-0.3033335689508814,"351":-0.08156548141597601,"352":-0.21666035814745968,"353":0.08463028312762726,"354":-0.41416593263192386,"355":0.18360544714543486,"356":-0.691422304333243,"357":0.19624210089653496,"358":-0.42510030537991095,"359":-0.021459338265706146,"360":0.19557490232762426,"361":0.1664472687402664,"362":-0.2649869323534731,"363":0.2138691684549185,"364":-0.37075635438815735,"365":0.005511868673896679,"366":-0.14338197176744058,"367":-0.25478025831410805,"368":0.03316173369801433,"369":-0.03145580550418626,"370":-0.2676324770931385,"371":0.21288007589427202,"372":-0.30007656819104306,"373":0.013447478203215608,"374":-0.049370805951823415,"375":0.025543192834434545,"376":-0.05732161066867945,"377":-0.1623436166361813,"378":0.049880417771414276,"379":-0.12239670279121342,"380":-0.11045001810471497,"381":0.027463251982426214,"382":0.5479942430433359,"383":-0.04929100318253143,"384":0.3256463181837506,"385":-0.05259495980861897,"386":0.20651265221521892,"387":-0.08341787041059773,"388":0.21069361034737893,"389":-0.05116731521097272,"390":0.06896690411671116,"391":0.07518299445632226,"392":-0.19773530743546508,"393":0.004411394797569664,"394":0.132385885830534,"395":0.04658628421714977,"396":0.1503488386482874,"397":-0.13669596821816304,"398":-0.2031277783272777,"399":0.15390055160564328}},{"sx":5,"sy":5,"depth":16,"w":{"0":-0.004610472689197068,"1":0.08853596058577164,"2":0.24552657220200422,"3":-0.09923604874241095,"4":0.33237116424071933,"5":0.1368337938676568,"6":0.17097774098402121,"7":-0.01638574017566201,"8":0.04677950521538583,"9":0.0464043954084843,"10":-0.04359687320622607,"11":0.2216850018107804,"12":0.004054146356799219,"13":-0.013139163627804838,"14":-0.1256018115707655,"15":0.12166423465700878,"16":-0.23947601175090563,"17":-0.162316531675832,"18":0.2685880882653684,"19":0.07571073181588246,"20":-0.03354336122602538,"21":0.13056456293949825,"22":-0.08463387595621352,"23":0.1686145804750997,"24":-0.07485712041862884,"25":0.20183124127087612,"26":-0.17337434583771247,"27":-0.02247920999329543,"28":0.07333730924106051,"29":0.07180250340374325,"30":-0.5269745034178858,"31":-0.15108192352714603,"32":-0.13013264584940978,"33":0.20134860388986328,"34":-0.255264081573494,"35":-0.2854478865121961,"36":-0.49093374873653767,"37":-0.0012114418329157578,"38":0.004928339739472858,"39":0.19129310214788467,"40":0.28647123226010995,"41":-0.018796812117282295,"42":0.1370059719000162,"43":-0.39273192597928114,"44":-0.08398586895808358,"45":-0.09888485582943816,"46":-0.07138199150432582,"47":-0.0621650713708343,"48":-0.05397162650040951,"49":0.3708843337251142,"50":-0.11035182079859926,"51":-0.15606397697921795,"52":-0.0746258262869959,"53":0.14293611706256215,"54":0.22707223166943113,"55":0.18720525669305685,"56":-0.013975852097435723,"57":-0.11475343730429201,"58":0.44352768243863383,"59":-0.18432442211088684,"60":0.04861016855919517,"61":0.09027334377126951,"62":0.12342739403540716,"63":0.18383753586447962,"64":0.04295039614322216,"65":-0.00028447954645796647,"66":0.4372241892563998,"67":0.03238098555637601,"68":0.23972915089413868,"69":0.008730920072925086,"70":0.08898174130352497,"71":0.04603443815622663,"72":-0.061251560256342256,"73":0.0095475641629906,"74":0.06436647241261582,"75":0.052986373017821234,"76":0.04646015956274924,"77":0.07984845087401193,"78":-0.03536694541215528,"79":0.09282306451861919,"80":-0.029847347773605707,"81":0.1147348099401006,"82":-0.190170016205495,"83":-0.3193940667799437,"84":-0.1879879579390173,"85":0.15648334757045562,"86":0.1201750296713387,"87":0.05311251241511496,"88":0.3134079813127224,"89":0.15393377525901253,"90":-0.2215254313350553,"91":0.25640432458497575,"92":-0.09112439840432555,"93":-0.020517019031997714,"94":0.3848063074555953,"95":0.020118256649941896,"96":-0.3109145762734979,"97":-0.12903753726832068,"98":-0.1437592953100841,"99":0.04557423973903867,"100":0.30362138907090025,"101":0.4507217311528702,"102":-0.14666296708087018,"103":0.04410770610290917,"104":-0.03413715628094064,"105":0.10093360707327091,"106":-0.03313076083003316,"107":0.26886808313139327,"108":0.07219767699993841,"109":-0.27985002435763606,"110":-0.11296540730966617,"111":0.05479862381643961,"112":-0.4447326544764694,"113":0.003531649967010647,"114":-0.04366145997055695,"115":0.4702673600188159,"116":0.0294500197776218,"117":0.4487547561939073,"118":-0.31037977742647443,"119":0.41945812940633054,"120":-0.043715230265236715,"121":-0.0038064060076623218,"122":-0.08935489102642276,"123":0.36425189345874825,"124":-0.06573623368256286,"125":-0.14312722132441275,"126":-0.6274577341023639,"127":-0.47830884440076954,"128":-0.06071501590464537,"129":0.1870946185715788,"130":-0.030981668807846804,"131":-0.07054809579453089,"132":-0.12261371613035942,"133":0.18429113438376996,"134":-0.1695150298484609,"135":0.18065499251331804,"136":0.07107582339152625,"137":0.033713543194008724,"138":0.012293731734210145,"139":0.12248573051163805,"140":-0.12483523090566145,"141":0.035843174933367354,"142":0.2053678326548185,"143":-0.21246415413685787,"144":-0.09250122040484758,"145":0.04125586723170423,"146":0.013720632904812667,"147":0.00792995382057132,"148":-0.04537260402667771,"149":0.13623450077423618,"150":-0.009768440716186804,"151":0.10617672034393905,"152":-0.08927771542330727,"153":-0.08868270204177715,"154":-0.10932465353214325,"155":0.05778367581771574,"156":0.0391928067392864,"157":0.1814546303785545,"158":-0.06806119213791992,"159":-0.08399845212681116,"160":0.12878646291235699,"161":-0.019235301186297037,"162":-0.1782824161809805,"163":0.10942445538404233,"164":0.0422188130319069,"165":-0.352314438343831,"166":0.217219696287593,"167":0.22577739488257542,"168":-0.0793080956348852,"169":0.1479880624588263,"170":0.04834480901902591,"171":-0.16692036470558907,"172":-0.16012924718140845,"173":-0.2797031832696575,"174":-0.05440025353148892,"175":0.23829518876674807,"176":-0.05510627066483484,"177":0.01583088932225803,"178":-0.12679491670462117,"179":-0.08810897530974997,"180":-0.4557006591714193,"181":-0.5077462338339112,"182":-0.012170417803405364,"183":0.36534865958419055,"184":0.11735719478756583,"185":0.11574299598079907,"186":-0.06122244066918054,"187":-0.06761032512684981,"188":-0.058277875865020756,"189":-0.02310569470065837,"190":0.6165928902230189,"191":0.4052872788274813,"192":0.020232993739944874,"193":-0.13987867649897248,"194":-0.09550391692706019,"195":0.1883451238268975,"196":-0.016239101123912643,"197":-0.28609550983041016,"198":-0.056624891358342234,"199":0.23468463887376115,"200":-0.22476647672437353,"201":-0.08743425896768954,"202":-0.20938667926165921,"203":-0.023706572546758835,"204":0.13736483657288615,"205":0.3916270285128814,"206":-0.04600961684615306,"207":-0.02203434783523379,"208":0.18652054627657025,"209":0.1560316057012906,"210":-0.11606571090049181,"211":0.4898728180465002,"212":-0.26402410185897934,"213":-0.2151127548264372,"214":-0.10612004850163424,"215":-0.002738766616726942,"216":0.051405454948099616,"217":-0.06510108692909714,"218":-0.22855764729098282,"219":0.05701560924211264,"220":0.011413432865809493,"221":0.3264920122043501,"222":0.07821462836279855,"223":-0.40408479547556364,"224":0.12622812366985697,"225":-0.10827288116771569,"226":-0.12562622887861905,"227":-0.011455353082688703,"228":-0.2901466709977997,"229":0.014135791087709388,"230":-0.05803847938859672,"231":-0.2523949904811706,"232":0.0758514693542057,"233":-0.08731837182378198,"234":-0.07526150615005567,"235":-0.0008739956857836948,"236":0.05136428270543516,"237":-0.13438804446698205,"238":-0.011726315662859811,"239":-0.13587799188764188,"240":0.11861519345608548,"241":-0.15719847217262062,"242":0.14094836196218424,"243":-0.08972248889951039,"244":0.2388829164080653,"245":-0.2892385590550402,"246":0.06125238567448798,"247":-0.2719780275334539,"248":-0.024125288436912563,"249":-0.25238922032946487,"250":0.08266489900122367,"251":-0.17721217537099823,"252":-0.10685503409710097,"253":0.1431235108444653,"254":-0.1003845594095099,"255":0.09171124601341059,"256":0.0916978876091144,"257":-0.35720247394034105,"258":0.05695954741040579,"259":-0.4158969038228286,"260":0.09872422899463452,"261":-0.8565184217339056,"262":-0.00564274677519549,"263":-0.5157929406681565,"264":0.052509428849490385,"265":-0.31823858059611726,"266":0.10420690986657259,"267":-0.2436640561489703,"268":-0.12446881586645282,"269":0.03818928000567773,"270":-0.020153815207067955,"271":0.17123151506010556,"272":0.2779102236330312,"273":-0.36695419682038316,"274":0.04569161715579684,"275":-0.5102596094710056,"276":-0.10750126111980982,"277":-0.6693451592877228,"278":-0.04079450994205427,"279":-0.3287368718434861,"280":0.20831921536014988,"281":-0.03384812864834433,"282":-0.08834674470634442,"283":-0.1530061216707881,"284":0.0560904561192178,"285":-0.032249781929331464,"286":0.08297362349239927,"287":0.3047181571050503,"288":0.21100867692000533,"289":-0.2995117959061353,"290":0.025649045533778277,"291":-0.4272756354920727,"292":-0.1194317602461654,"293":-0.5047466160418386,"294":0.16252607083382337,"295":-0.15754258989326955,"296":0.04308430924388351,"297":-0.07914294207449407,"298":-0.016958632680611273,"299":-0.035253550969618096,"300":-0.029001862361976445,"301":-0.046325617403835076,"302":0.01986022700922252,"303":0.07134140718816842,"304":-0.027674466625615485,"305":-0.040368047725965805,"306":0.04214358052493523,"307":-0.2523356674790516,"308":0.17828979999145458,"309":-0.15693489841379674,"310":0.06698755901273741,"311":-0.05872115550373198,"312":0.09622378214231024,"313":0.0198996586625781,"314":-0.08147150926697518,"315":0.04896294020626776,"316":-0.15561184028688674,"317":-0.1957753683453443,"318":0.1712505897802024,"319":0.0018735973312594128,"320":0.22680347635988052,"321":-0.1679056957862836,"322":0.014953095260206335,"323":0.004145044706412794,"324":-0.08695716896916857,"325":0.3987219249348981,"326":0.15086433468347996,"327":0.1981598798885682,"328":-0.0034810967430023093,"329":-0.18188710472102926,"330":0.19558298773210206,"331":-0.05192938952603614,"332":0.1379062357744542,"333":0.17462583578780486,"334":0.05140827285007486,"335":0.14695520767610964,"336":0.06815258437026654,"337":-0.27026361781308333,"338":-0.023056048784842714,"339":0.06521766503243127,"340":-0.01597505884475747,"341":-0.30256718036814717,"342":0.030612810877186817,"343":-0.2056492540249098,"344":0.10548809854943007,"345":-0.20751605652907312,"346":0.2069275058830099,"347":-0.248810348312588,"348":-0.24053384535390082,"349":0.09915192072665859,"350":-0.12346531695083104,"351":0.03244656644229607,"352":0.07929802374228753,"353":-0.21860093049330057,"354":0.14983319826448827,"355":-0.5417250176574637,"356":0.10248799621744628,"357":-0.2573528242546036,"358":0.1416083799523439,"359":-0.20458153278300614,"360":-0.024390846752626604,"361":-0.3140696659021589,"362":0.08020805287221817,"363":-0.16046167489978677,"364":0.06277331586972175,"365":0.11618882350492209,"366":-0.207494290363405,"367":0.050323138547974815,"368":-0.07270770831571595,"369":-0.20189067595536267,"370":0.09062118871462574,"371":-0.47570511622973366,"372":0.07446573656246525,"373":-0.055108519535693436,"374":0.012691316865902968,"375":-0.26847135443875203,"376":-0.1386388172978143,"377":-0.2891881016428496,"378":-0.02827534349731844,"379":-0.20865165188892568,"380":-0.015649486354679,"381":0.1816387584237754,"382":-0.1192740348952849,"383":0.012199440890010651,"384":-0.026332175323870114,"385":-0.08306186923672008,"386":0.15025215045123208,"387":-0.5462746565086726,"388":0.19269700177487784,"389":0.05335816724785522,"390":0.06442251417778797,"391":-0.30464992458528883,"392":-0.047151071226077194,"393":-0.02849213814837471,"394":-0.06674645470735653,"395":0.0788704839780468,"396":-0.11792795637271886,"397":0.006488314717013028,"398":-0.09567332690427441,"399":0.23490943909653184}},{"sx":5,"sy":5,"depth":16,"w":{"0":0.11395298327619706,"1":-0.09333777857233193,"2":0.19233582859612605,"3":0.10194108571650763,"4":0.10513155073032028,"5":-0.26638034240525016,"6":0.08983343671659641,"7":-0.010062785176755584,"8":-0.018014917758262985,"9":-0.24157794129621155,"10":-0.072108436381921,"11":-0.1826822816958081,"12":0.2055881377499739,"13":0.5372098334986593,"14":0.22189748519300728,"15":0.08223050904503225,"16":0.0994060514809319,"17":-0.3626438406467445,"18":0.12079177818697011,"19":-0.13755293928172388,"20":0.1508244089217271,"21":-0.4243815526482353,"22":0.09092139704368316,"23":-0.11517273581492139,"24":-0.18361068131971073,"25":-0.38729772650105726,"26":-0.1192046579037664,"27":-0.10194741479998393,"28":0.16144383194110956,"29":0.5208624192340883,"30":0.2754621875880677,"31":0.1330000924764213,"32":0.2332653642381683,"33":0.0026659699380098103,"34":0.2012014399455694,"35":-0.32749685797384165,"36":0.21212891017616783,"37":0.05777861582849418,"38":0.028971576470781708,"39":-0.043764604836235635,"40":0.050132029931014434,"41":0.020825924809650263,"42":0.15247167100881073,"43":-0.11359857372345387,"44":0.15350015854013052,"45":0.00859224611002676,"46":-0.04490427103069205,"47":0.2950894996716325,"48":0.061612648924199064,"49":0.055929650400538225,"50":0.18120755044770007,"51":-0.25989043572695136,"52":0.08509206225342847,"53":-0.1865047516043606,"54":-0.01110253939402576,"55":-0.04184280570867211,"56":-0.03406698091255815,"57":-0.21081465467098373,"58":0.03968201080115669,"59":-0.21785374045001418,"60":0.008925970329264244,"61":-0.253341708968584,"62":-0.21910397629619663,"63":0.20846458910641744,"64":0.16052283885351817,"65":0.10038772775720974,"66":0.08295167758720305,"67":-0.0021180165605886505,"68":-0.08701802825825909,"69":0.05580662440706771,"70":0.19156356648961848,"71":-0.04398602255493712,"72":0.032184308550426824,"73":-0.06695297601706258,"74":-0.12665276934701497,"75":-0.17213594500218077,"76":0.03436495939773459,"77":-0.08440409815278951,"78":0.12304368657890917,"79":-0.1790392273175843,"80":0.28659976788905933,"81":0.22826111474887564,"82":0.08774530333746831,"83":0.007985609643502381,"84":0.006223180653272859,"85":-0.2733195734474579,"86":-0.10578294925865257,"87":-0.35630741903093766,"88":-0.1964817964209073,"89":-0.259121764779971,"90":-0.027055714487573768,"91":-0.1005011082701078,"92":0.2086995659661151,"93":0.318030486762541,"94":-0.07019868784831712,"95":-0.39073328475215396,"96":-0.047823705906408824,"97":-0.2746287293362166,"98":0.06719783282470564,"99":-0.13884389285326854,"100":0.11208018575769371,"101":-0.40112696149596666,"102":-0.05951380756292821,"103":-0.19979268811197443,"104":-0.1095180410047993,"105":-0.3160724506686436,"106":0.10335832379104021,"107":-0.2897318903734367,"108":0.1982168489044757,"109":0.21208933474926267,"110":-0.07537594584463848,"111":-0.30376810591249404,"112":0.03374958000964275,"113":-0.020768596468727203,"114":0.034875371283135385,"115":-0.16654155821715816,"116":0.19039643284512658,"117":-0.20744592141532905,"118":0.11430506468837622,"119":0.017507328180418773,"120":0.13748514948093823,"121":-0.0242204625550754,"122":0.10979466537014043,"123":-0.1927708543213092,"124":0.08108790709131801,"125":0.04971563761345472,"126":0.12569316644384687,"127":-0.10802414081403146,"128":-0.08629186695823408,"129":-0.19459206052923114,"130":-0.04358959217719741,"131":-0.3925931958324915,"132":0.10421498085020861,"133":-0.33853039952459024,"134":0.1256761431672913,"135":0.0759183736265804,"136":-0.027028125560685054,"137":0.15423399226916193,"138":0.13764270560922634,"139":-0.3982929151384617,"140":-0.3099598918121761,"141":0.025801574634109103,"142":-0.17891900413800468,"143":0.1303584691255564,"144":-0.05579147924046701,"145":0.11396442329041724,"146":-0.07137037435574209,"147":-0.11896779088392764,"148":-0.13621083669833917,"149":-0.24079361030587262,"150":0.09010192542294358,"151":0.2432735189676376,"152":0.17266907889713035,"153":0.04314619996857434,"154":-0.0587428499392354,"155":-0.38809523329291834,"156":-0.13527055486450748,"157":-0.2836821655660807,"158":0.07293445621951791,"159":0.10671231544986025,"160":0.144980991485795,"161":0.45489008770801337,"162":-0.10475405033023494,"163":0.05670389916232443,"164":-0.14856055878257582,"165":-0.07124944755149222,"166":0.08567556760806297,"167":-0.35229874951419293,"168":-0.03336341562586942,"169":-0.07752594972449259,"170":-0.19735421097906491,"171":-0.012556987125170766,"172":0.04874430228051361,"173":0.06582181424653945,"174":-0.17079882164735985,"175":-0.1904197082814527,"176":-0.05508862334026218,"177":-0.1492070945030825,"178":-0.0442629253927403,"179":0.39199552696976175,"180":-0.18059360607459476,"181":-0.06939689139971841,"182":-0.07754122247683352,"183":-0.2607022848557692,"184":-0.08068876582013318,"185":-0.27194470031012075,"186":-0.0468719222437105,"187":-0.15931440363995356,"188":0.07932731687962809,"189":0.11327388975658123,"190":-0.07179838104672769,"191":0.061292458510952996,"192":0.1669358446994492,"193":0.049698353939185716,"194":0.02842426449017202,"195":0.14064387007763837,"196":-0.07645489643462719,"197":-0.041642713015032695,"198":0.012181626197725014,"199":0.04471526365437417,"200":0.21366663799183347,"201":0.22290730581531737,"202":-0.005413274394150606,"203":-0.07171592847475486,"204":0.002564410200862005,"205":0.08049384634011286,"206":-0.1401321506919206,"207":0.5099983256981051,"208":-0.05636306090406495,"209":0.018414697899034913,"210":0.042382317018859764,"211":-0.11673083856740224,"212":-0.10406666722212485,"213":-0.18290285173041,"214":0.04744973273001148,"215":0.05874376379804506,"216":0.16828081779647114,"217":0.16798280641543545,"218":0.057387114527880076,"219":-0.03044460789663582,"220":-0.3319672150892187,"221":-0.04671653975473225,"222":-0.0025863489829972552,"223":0.19321258646544748,"224":0.00361400608067284,"225":0.12757972867504833,"226":-0.22030699803414255,"227":-0.09521000696573867,"228":-0.1453796366235177,"229":-0.08983100728314172,"230":-0.046756343239544175,"231":0.11313977963001762,"232":-0.03466674649028269,"233":0.40380140871451276,"234":-0.030659246259343235,"235":-0.04714902561510377,"236":-0.3750082397611178,"237":-0.2745149205653329,"238":0.11581133003290574,"239":0.07945262303511641,"240":-0.22734281305916723,"241":0.22851274700317764,"242":-0.23952522218328612,"243":0.13442893020617375,"244":-0.13675540565860034,"245":-0.014949029718805282,"246":-0.25087118148372267,"247":-0.11014805287338574,"248":-0.10016582415505122,"249":0.05492441308573611,"250":-0.22813464643734885,"251":0.35684310467413727,"252":0.07871310869243292,"253":-0.04313124636321949,"254":-0.09071449961181305,"255":-0.03627422439890931,"256":-0.20225825959793273,"257":-0.2920746616435205,"258":-0.31147964282281493,"259":0.23852197150423166,"260":-0.30554498402969016,"261":-0.08414420001822608,"262":-0.1558917157078305,"263":-0.06151806869026277,"264":-0.2825556841837075,"265":-0.20717397948506022,"266":-0.1807604719519482,"267":0.24892701224631877,"268":-0.27580474599204,"269":0.11255965304223449,"270":0.1547265934515554,"271":0.061942996189930016,"272":-0.09697626703484549,"273":0.05686221447425852,"274":-0.10349987584473566,"275":-0.03232123099992515,"276":-0.21019725691615812,"277":-0.07031601163699305,"278":0.019904835967678162,"279":0.17528641883516072,"280":-0.3906704694224055,"281":0.26949891527144015,"282":-0.2587328088128843,"283":0.29728252365128516,"284":-0.4506786742006236,"285":-0.05133931031045883,"286":0.08065345459766719,"287":0.07727546808033736,"288":-0.09287239458375907,"289":-0.031464809587319675,"290":-0.05737628085751837,"291":0.28111671155603585,"292":-0.28971027285501394,"293":-0.06986171264850433,"294":-0.07889786219945022,"295":-0.023114692170494743,"296":-0.35840545240415894,"297":0.1482480936275685,"298":-0.2081578181317273,"299":0.1087481166553266,"300":-0.34248939757634217,"301":-0.3056391281839668,"302":-0.008340457066699067,"303":-0.17151688012357005,"304":-0.05367421625780646,"305":0.05434769732552215,"306":-0.12235898792655357,"307":0.003958450146162527,"308":-0.1584761338741613,"309":0.011809897940269156,"310":-0.17449026002871157,"311":-0.04063537483124707,"312":-0.32580621875299653,"313":0.34668278877562,"314":-0.1666225611865066,"315":0.25117609138737695,"316":-0.24219482167992507,"317":-0.05335101850630242,"318":-0.018929165429511657,"319":-0.19232977258364212,"320":-0.3473733262260671,"321":0.13770538880422428,"322":-0.2763615030255565,"323":0.23955949766190715,"324":-0.171301649346432,"325":0.16144446953651911,"326":-0.08116785168066262,"327":0.028199154075293956,"328":0.017017168361440904,"329":0.14940937225976056,"330":0.006383634994264183,"331":0.30933324079495317,"332":-0.29268755373255695,"333":-0.16467294234746407,"334":0.05275355643862024,"335":-0.1529499901009606,"336":-0.15636995123856445,"337":-0.13405134522895268,"338":-0.2526905753055411,"339":0.033728582076054385,"340":-0.28450440023801987,"341":0.14168700956302305,"342":0.05481406078299161,"343":0.136415995294111,"344":-0.17961285286262207,"345":-0.16798142113740683,"346":0.11631079003818667,"347":0.3801222392375193,"348":0.020052047809502333,"349":0.47026853512044636,"350":-0.01901288356746609,"351":0.17997142439747607,"352":-0.16535875922002488,"353":-0.027104917430564233,"354":-0.17265992270328626,"355":0.006868610405834056,"356":-0.14924950309115168,"357":0.09430598709852757,"358":-0.03132102856516382,"359":0.15387008440215647,"360":-0.15290877625214305,"361":0.050016954969396815,"362":0.026172391645883794,"363":0.2918368108524512,"364":-0.13883434043669798,"365":0.12010880446638154,"366":-0.1379127526839601,"367":0.12241317310725745,"368":-0.1730564935165086,"369":-0.03061323682709607,"370":-0.05933417407159628,"371":0.1427147516610494,"372":-0.17047954126229742,"373":0.1614732147297758,"374":-0.08804849255987038,"375":0.05985561412858388,"376":-0.06149840224789856,"377":-0.028843567154678888,"378":-0.041726770513426784,"379":0.1423543411626715,"380":-0.13846902282486165,"381":-0.35902435583656905,"382":-0.14807572466331564,"383":0.09307124984359584,"384":-0.0957617249963906,"385":0.10625092649974967,"386":0.02207443848118876,"387":0.23933947332476607,"388":0.14235012034476865,"389":-0.02146353557543978,"390":-0.13609982661999637,"391":0.1449717472464847,"392":0.018158212358982285,"393":0.07417912943792719,"394":-0.050628082647823605,"395":0.06221846037810765,"396":-0.42830696915878524,"397":-0.20196863480107807,"398":-0.0763148744259518,"399":-0.22586419566939323}},{"sx":5,"sy":5,"depth":16,"w":{"0":0.17803565463865575,"1":0.14973214409048413,"2":0.186185317415752,"3":0.05297095272756883,"4":-0.19146406185021758,"5":-0.1929439423668047,"6":0.1762403914718058,"7":-0.09473303494425771,"8":0.011871492220503075,"9":-0.18711703376987288,"10":0.3202563190693724,"11":0.2118402544697541,"12":0.02427914411481694,"13":-0.14111807278661498,"14":0.1681205276355887,"15":-0.37264729695675963,"16":-0.29759375802611965,"17":0.03730206784268424,"18":-0.10260862621921263,"19":0.3546380092897049,"20":-0.2682244736256124,"21":-0.19170620134422922,"22":-0.12096545066044795,"23":0.0750193477523537,"24":-0.0433745868402329,"25":0.15281666897876311,"26":-0.05374140905163549,"27":-0.16640864981589815,"28":-0.4140024083524768,"29":-0.04795856519044245,"30":-0.09458955992561441,"31":0.08357380331995391,"32":-0.0741664827816082,"33":-0.026288034488331675,"34":0.007570163954077106,"35":0.08397775054698654,"36":-0.16018879645983355,"37":-0.1296906789480325,"38":-0.34914884014998687,"39":0.18224897713339913,"40":0.24093417913215048,"41":0.15849136578857284,"42":-0.3954095603240084,"43":-0.1523524160346095,"44":-0.1270155943086879,"45":0.042256625681942744,"46":0.2920851855070321,"47":0.1513836701173143,"48":0.138634157382862,"49":0.26787900761598893,"50":0.05957490782983636,"51":-0.09997150567690094,"52":0.15309622625333094,"53":0.0452376599952676,"54":-0.04514459963001564,"55":0.05058518918066476,"56":-0.10030376589755086,"57":0.021123360309057353,"58":-0.0031113105836574526,"59":0.1402262318184034,"60":0.14810134536348413,"61":0.3670621891287117,"62":-0.15580929749438657,"63":-0.17855446029187932,"64":0.22032159253583602,"65":-0.0017353020556624132,"66":0.13999474116497268,"67":-0.07402872235976828,"68":0.30262116285870344,"69":0.12517626769202705,"70":0.10230675469861424,"71":0.06950655594124923,"72":-0.02852330090631299,"73":0.3149521835839495,"74":0.12036275858655338,"75":-0.1979218295831298,"76":0.17971930202747577,"77":0.3334386717879246,"78":-0.13266883542441218,"79":-0.03824738535519827,"80":0.0373735622404869,"81":0.1863870513700035,"82":-0.004721507109324772,"83":0.11033147350863637,"84":-0.21935211584697914,"85":-0.09619156824940597,"86":0.27654431771210963,"87":-0.1842304783665534,"88":-0.06572388633312222,"89":-0.2358703481305759,"90":0.20736639365228043,"91":0.10176843685468637,"92":-0.26678523405530535,"93":-0.10012601436527807,"94":0.2668505910330389,"95":-0.41170083550887326,"96":-0.0884245261380455,"97":-0.005456158002877825,"98":-0.16946128284843062,"99":0.37211400970360237,"100":-0.3342963305230027,"101":0.016033330031294573,"102":-0.05468907846536492,"103":-0.17462329966876097,"104":-0.22985461497209164,"105":-0.03430588559783829,"106":0.11629952314353924,"107":-0.18918818428643508,"108":-0.6691774073332867,"109":-0.38439557515774364,"110":-0.08229534088112411,"111":-0.28670646747998907,"112":-0.17004379995228533,"113":-0.10349530796598755,"114":-0.2133967088099765,"115":0.15117089691609076,"116":-0.41568833804263544,"117":-0.07337303853932438,"118":-0.1134277447949547,"119":-0.17532532338358783,"120":0.1337858565726487,"121":0.12004033538522006,"122":-0.28180016790004003,"123":-0.1373834245109742,"124":-0.4631078281976571,"125":-0.519694154819733,"126":-0.26405901836430934,"127":0.213572972311248,"128":-0.052878029290451684,"129":0.010114561672684009,"130":-0.12043666873756717,"131":-0.17372421740655697,"132":-0.26259703641821663,"133":-0.1282610623384916,"134":0.05697811850058868,"135":0.11219078627214128,"136":0.24272887477465901,"137":0.04832714002451012,"138":-0.042417912531461266,"139":0.043900820144391124,"140":-0.10339833513801543,"141":-0.23590452224795813,"142":0.1401628002627857,"143":0.211926236356584,"144":0.23137041803265151,"145":-0.1335037037112264,"146":0.005853075354009171,"147":-0.17247348426294634,"148":0.024295915763484197,"149":-0.24915211403637,"150":0.07304784501408693,"151":0.023118573725143268,"152":0.10960905082527701,"153":-0.06534157768033122,"154":0.3124740767262823,"155":-0.02898233676413243,"156":0.07242360284321926,"157":0.33604106257118344,"158":-0.2624063359732643,"159":0.10035955801344262,"160":0.0019524138569535735,"161":0.03811226542799553,"162":0.10465381538690026,"163":-0.02727164510651128,"164":0.07438722467174268,"165":-0.003691564234945922,"166":0.17821587257998955,"167":-0.09156184364478898,"168":-0.03227215443011581,"169":0.010364750201936326,"170":0.0906483524176924,"171":0.16067405291381381,"172":-0.17446453328099068,"173":0.39230314038845676,"174":0.4065189210951575,"175":-0.1207866864769125,"176":0.0011892144631072779,"177":0.14648548286474716,"178":0.06826399226174007,"179":0.24597415345116957,"180":-0.36221210554386923,"181":-0.030497964489984264,"182":-0.2851730935711738,"183":-0.09388313505329078,"184":-0.10542066208702296,"185":-0.20921037581910976,"186":0.14037186019570733,"187":-0.11376412292714974,"188":-0.4477650857781743,"189":-0.3835050742857587,"190":0.2420024872757745,"191":-0.42021319133051077,"192":0.10452027960413393,"193":-0.0663450680789272,"194":0.017176318310279846,"195":0.15581588522964795,"196":-0.4136874768814092,"197":-0.08800789476648302,"198":-0.13919107900979633,"199":-0.3381503888042965,"200":-0.17716572466659794,"201":0.1294772652536937,"202":-0.2580261495655331,"203":-0.18001233454414192,"204":-0.4605998103976821,"205":-0.5448881417769009,"206":-0.3116537743697046,"207":-0.05923277724643102,"208":-0.04097858901023044,"209":-0.1745831883079701,"210":-0.16210070870740176,"211":0.07148763670908509,"212":-0.4500288381172867,"213":-0.006812624470814784,"214":-0.16929085511696498,"215":-0.20063489735283,"216":0.10591999182359559,"217":0.1705374537472485,"218":-0.1535934790049366,"219":-0.05140795395905379,"220":-0.18184590942483317,"221":-0.3435005508128584,"222":-0.07068367998189357,"223":0.3894328891735854,"224":0.1976677871764264,"225":-0.2600173631373305,"226":0.013773747422483258,"227":-0.2591431730363591,"228":-0.24585276682001495,"229":-0.028120716400303163,"230":-0.05439818104672989,"231":0.12564370659445065,"232":0.169112567629703,"233":0.06808129702430313,"234":0.055552419588028035,"235":0.014061451112862491,"236":0.06964476207672218,"237":0.020117741096445572,"238":0.03725400261838187,"239":0.10872977615329671,"240":0.02668708479506166,"241":0.005824379770586009,"242":-0.0849656419291186,"243":-0.062241523710436335,"244":0.15314432607329648,"245":0.05353936557919083,"246":-0.042838700810356574,"247":-0.0910665999773857,"248":0.1624768575258686,"249":-0.07111768822037028,"250":-0.07864023477304656,"251":0.26524410592335357,"252":-0.10642084559022072,"253":0.11258883956462785,"254":0.09820724532889435,"255":-0.15861241527453876,"256":-0.17829680785878166,"257":0.10721695421794712,"258":-0.06652605369280375,"259":-0.007066297231809665,"260":-0.3280300612185647,"261":-0.07485567778496935,"262":-0.25488313148059527,"263":-0.013600532716820603,"264":-0.02364572364389756,"265":-0.022025305161269566,"266":0.059765689727788424,"267":-0.22464638765327166,"268":-0.2752662324357722,"269":-0.2826856687015498,"270":0.024632373336145364,"271":-0.1851764318264785,"272":0.014496706058465715,"273":-0.04230878315328915,"274":0.01754322711459132,"275":0.012449941180935786,"276":-0.35060487017987335,"277":-0.056525047040435095,"278":0.02752498298552417,"279":0.04276561406766808,"280":-0.1276651705259103,"281":-0.19656706968418516,"282":-0.14710602237341722,"283":-0.10100768962317208,"284":-0.3464301403334257,"285":-0.424182118888672,"286":-0.2773100148112809,"287":-0.238603774270081,"288":-0.07583049840610039,"289":-0.008385804744312955,"290":0.046034403697597134,"291":0.11755042143869467,"292":-0.3550727546222077,"293":-0.028166669823731862,"294":-0.188022702940236,"295":-0.17906963770339607,"296":-0.1162717074708505,"297":0.021472166930120593,"298":-0.1807953450098973,"299":0.06392720510992976,"300":-0.21245948073406792,"301":-0.28593502789430064,"302":-0.23082267280022836,"303":-0.14740595601948733,"304":0.0016596654582682713,"305":-0.175064352884332,"306":-0.02015375164345727,"307":-0.17972436102776773,"308":-0.12673560850907056,"309":-0.08388594587619297,"310":-0.11123640953571703,"311":-0.02701755367669254,"312":0.11156811220016614,"313":-0.08790735202011687,"314":-0.2110936114341958,"315":0.21404190876272983,"316":0.09116311639717113,"317":0.07108095528304127,"318":0.10402191571200291,"319":-0.09313770091122607,"320":0.12342215813869992,"321":0.1549341367561831,"322":0.16724777767354929,"323":-0.1276748169773781,"324":0.26438624080475903,"325":0.10093220010129518,"326":-0.06390572665424173,"327":-0.09078880239032303,"328":0.07047636040666787,"329":0.13837282417733268,"330":0.03289403040069699,"331":0.1298573995414815,"332":0.03987515439575217,"333":0.07841949721900178,"334":0.23701305707233247,"335":-0.07913090641601836,"336":-0.016880961626247883,"337":0.2167101987920218,"338":0.3054420239288674,"339":0.09671504626363188,"340":-0.15683745463540394,"341":-0.08793322476451433,"342":-0.11590975874936003,"343":0.07942027152848395,"344":0.03818879113552373,"345":0.3063679178033954,"346":0.017771875774856515,"347":-0.21006283214855545,"348":-0.1652991594016122,"349":-0.12976826124472843,"350":0.09674212186368163,"351":-0.05079115920587806,"352":0.043468866984879256,"353":-0.006429674017184003,"354":0.18126517552786867,"355":0.07958460348005476,"356":-0.04309056504394952,"357":0.15778176235608715,"358":0.20686935639232162,"359":0.16474602599903612,"360":-0.04343844306086674,"361":0.0020278332775570235,"362":-0.043222808283354335,"363":0.0949569348465909,"364":-0.05176001684226536,"365":-0.08652574786533801,"366":-0.1446939069719637,"367":0.1760744082576968,"368":0.10726444427596106,"369":0.08788792976432815,"370":0.07326314376790669,"371":-0.06508302025677278,"372":-0.204658183051721,"373":-0.1731716021326371,"374":0.05936740376905259,"375":0.009069531216729815,"376":0.1077218410297522,"377":-0.08383234570230107,"378":-0.1526398524127299,"379":-0.1059165709040013,"380":0.09255413809572396,"381":0.129079228507976,"382":-0.13629312434921034,"383":-0.0024599635974498564,"384":0.17743285368517622,"385":0.20434857024421293,"386":0.2177251677427149,"387":-0.2646168681453854,"388":-0.04253705902041277,"389":-0.11050809729714718,"390":0.10842178001298507,"391":0.05704152584199409,"392":0.3232083688538518,"393":0.09998693256086749,"394":-0.09207184418028758,"395":-0.0479720820325067,"396":0.12974839891869996,"397":0.07257348269838242,"398":0.09011019989646982,"399":0.2288650361400629}},{"sx":5,"sy":5,"depth":16,"w":{"0":-0.032761818339927376,"1":-0.17167867321980476,"2":-0.02742318277280709,"3":0.07593379920974418,"4":0.04265349055629929,"5":0.14467395212898232,"6":0.3162157375583527,"7":-0.24343830204896957,"8":-0.03948941715429176,"9":-0.3771453366317479,"10":-0.013861438930933546,"11":-0.13316677524199533,"12":-0.07531511764824625,"13":-0.07224407112839748,"14":0.09923658092940088,"15":0.04731862514325186,"16":0.17478890658600366,"17":-0.28565176411731064,"18":0.29907788119497425,"19":-0.22046493526546027,"20":0.18505624978424204,"21":0.3277361649501431,"22":0.2693140699085564,"23":-0.3266968850918589,"24":-0.007270720566816611,"25":-0.2384819091569097,"26":0.02973995622883578,"27":-0.14811041201979522,"28":0.03569588498486,"29":0.0802194523985005,"30":-0.05131486461762679,"31":-0.04793949452592666,"32":0.10688252867986299,"33":0.28183465083706066,"34":0.10304204309870464,"35":-0.03614295091508793,"36":0.0853466871904901,"37":0.2256728693577721,"38":0.2437222880634352,"39":0.029705404014355553,"40":0.1382516739515813,"41":0.34490437801131635,"42":0.09671518526755976,"43":-0.17434193165260203,"44":-0.21340403906767696,"45":-0.1402403493720095,"46":-0.08864880276979394,"47":-0.06091372797083182,"48":-0.09508447175966168,"49":0.11952562097713505,"50":-0.20072958918580927,"51":0.14509655604953658,"52":0.035452499949075,"53":0.2896985009733952,"54":-0.26528413442481874,"55":0.037999096784753314,"56":0.043157975457316124,"57":0.2576566261152612,"58":0.007490612052510919,"59":0.06708048075633281,"60":-0.20778375623811945,"61":-0.27784999347534495,"62":-0.08715764115331334,"63":-0.3018456515961294,"64":0.03482494381878601,"65":-0.08328407164390587,"66":-0.23991172087571921,"67":0.200544518795423,"68":-0.020692123594375642,"69":0.0185018316116741,"70":-0.1708513229320777,"71":0.0670241027697008,"72":-0.041215741310612425,"73":-0.12477458107304536,"74":-0.007337296264867221,"75":0.543690977478909,"76":0.008752953379245646,"77":0.020804986726986018,"78":0.377514175248584,"79":-0.24669348677867448,"80":0.022931668362203422,"81":0.0473400287457625,"82":-0.010872771628283472,"83":0.05620572550318514,"84":-0.028984270500900855,"85":0.27313403326605795,"86":0.0935653383715397,"87":-0.13656045158678515,"88":-0.15235232716512503,"89":-0.07237860587563301,"90":-0.03200909557283941,"91":-0.2271982226491996,"92":-0.07151698504589764,"93":0.08099908679746605,"94":-0.15440731010277176,"95":0.058913857814555284,"96":0.08181415960227297,"97":-0.1286387794402431,"98":0.07815576834530685,"99":-0.17460875646853272,"100":-0.026084016013730345,"101":0.2063772554755908,"102":0.16950579558986556,"103":-0.2871926506552873,"104":0.1224204282222541,"105":-0.12951761654451402,"106":0.018714964894364933,"107":-0.29919556557958454,"108":0.12992968118784926,"109":0.14742406986384057,"110":-0.1548581243090927,"111":0.16672747562147133,"112":-0.10284988314264704,"113":0.04519146666462954,"114":0.18057201056408623,"115":0.08438920493122845,"116":0.10668180720104768,"117":0.2782977076088506,"118":-0.05320212053680494,"119":-0.16295566378037082,"120":0.10954596700315636,"121":0.2882088496915817,"122":0.12414204831171204,"123":-0.33665376138176467,"124":-0.2086888769217296,"125":-0.04383283429608137,"126":-0.1666384012070386,"127":-0.2073844679625938,"128":-0.06403565225097811,"129":0.13686842388700837,"130":-0.08055115121045459,"131":0.17351086377841488,"132":-0.255106319664901,"133":0.20314223434695972,"134":-0.2268833593809737,"135":-0.33374324650831283,"136":-0.2010466078559944,"137":0.15935890109086367,"138":0.01442181927858518,"139":-0.2700417625983999,"140":-0.5544558384202894,"141":-0.5082266107490498,"142":-0.13203596066427883,"143":-0.49336080430817275,"144":-0.12008898766950976,"145":0.05630908108570086,"146":-0.10453481249518315,"147":0.3532901915776784,"148":-0.09605144018694803,"149":0.19323475164553314,"150":-0.2315804646862825,"151":-0.011011447095248391,"152":0.055491051159228574,"153":0.1954332882994449,"154":-0.07916784371177434,"155":0.022281227200776438,"156":-0.28376347428043613,"157":-0.15426537667661386,"158":0.05537307145003837,"159":-0.13218898963581285,"160":0.07770110760329897,"161":-0.12937836975929976,"162":0.038752913333801785,"163":0.08686110700975648,"164":0.024912734713089614,"165":0.1649519684314261,"166":0.08826010793844152,"167":-0.08216892938968216,"168":-0.14871165857480037,"169":0.12160058148205026,"170":-0.02805274522278382,"171":-0.41254421811715913,"172":0.05950134305545149,"173":-0.0580199566747684,"174":-0.21826733398121842,"175":-0.033407097592978025,"176":0.06409963411963189,"177":-0.3134755896815821,"178":0.40114141705638695,"179":-0.07194419835616567,"180":0.15974474675789194,"181":0.24142573392541636,"182":0.002024606913779351,"183":-0.2333075277384361,"184":-0.06913159988547388,"185":0.05848421074075801,"186":-0.030494045971024765,"187":-0.35556198810617323,"188":0.01967764088357856,"189":0.1810677054173521,"190":0.08164795171446136,"191":-0.07262655688017132,"192":-0.0766498815832325,"193":0.09270039832178573,"194":0.33696091952664325,"195":-0.14203571781745838,"196":0.05182901527010531,"197":0.25456659940156184,"198":-0.12916234061846368,"199":-0.07844766630352079,"200":-0.23892514854231192,"201":0.2034994813907478,"202":-0.22487726011532697,"203":-0.5088517026140609,"204":-0.1719808105519836,"205":-0.05337974175741996,"206":-0.09270391687559805,"207":-0.19570548065436225,"208":-0.05004365356358816,